[matrix([[ 3.54110169e-01,  1.00530883e+00,  1.71680755e-01,  1.75768588e+00,  4.51367897e-01, -5.49371786e-01, -5.18249025e-01,  8.34488426e-01, -2.05382951e-01,  1.19405462e+00,
          9.85493800e-01, -2.82832414e-01,  1.09900886e+00, -1.34516094e+00,  1.32569258e+00,  1.53797134e+00, -2.29418276e+00, -2.12595315e+00, -8.46013263e-01,  4.99604667e-01,
         -5.83387883e-01,  4.67035647e-01,  5.93608396e-01, -7.55203517e-01, -3.31353819e-01,  4.15469418e-01,  8.51665701e-01,  1.18520964e+00,  1.72377246e-01,  3.92859513e-01,
          1.48448642e+00, -5.29711122e-01, -8.22324808e-01, -3.38376141e-01, -5.62014806e-01, -1.14813471e+00, -9.68028416e-01,  1.74576986e+00,  1.10212851e+00, -7.37277339e-01,
          1.13899191e+00,  1.94850588e+00,  6.89088958e-02,  5.47010398e-03, -1.29461313e+00,  4.05865354e-01,  2.81360211e-02, -1.78025940e-01, -5.55807176e-01, -8.05936799e-01,
          4.46242035e-01,  6.12198885e-01, -1.75831774e+00, -5.69508515e-01,  1.55063460e+00,  1.72885950e+00,  2.25801746e+00, -9.93149285e-01, -2.68212428e-01, -1.44350202e+00,
          1.61651781e+00, -1.87861173e+00,  1.32563241e-01,  8.14839488e-01, -5.57725552e-01,  3.37941115e-01, -2.28234448e+00, -4.49301959e-01, -1.48977951e+00, -8.40427160e-01,
         -4.21775657e-01,  7.13167328e-01,  1.47259411e+00,  1.24540638e+00,  8.38917909e-01, -2.94652061e-01,  2.55381342e-01,  1.45320622e+00,  1.06220841e+00,  2.49021403e-01,
          8.29496220e-01, -6.82262624e-02,  3.96942319e-01,  2.52218285e-01,  4.35944197e-01, -1.33995754e+00, -1.26348633e+00, -6.09480510e-01, -1.46322782e+00, -4.38321400e-01,
          1.12644344e+00, -1.57040198e-02,  1.02135186e+00,  5.34840959e-01,  2.27939485e-01, -1.24548214e+00, -7.78806170e-01,  7.11739126e-01,  1.88748703e+00, -7.51278276e-01,
         -2.63770206e-01,  4.76466515e-01,  2.41213428e-01,  1.24724922e-01, -1.57633641e-01, -3.05976082e-03, -7.77789273e-01, -8.09491130e-01, -8.81910974e-01,  6.97772446e-01,
          4.67571733e-01, -2.76221006e-01, -1.22695744e+00,  2.57442444e-01,  9.53877231e-02, -1.71609081e-01,  3.41276489e-01,  2.59579454e-01,  9.15258334e-01,  2.43528810e-01,
         -4.61685236e-01,  7.23927780e-01, -2.59223659e-01, -1.08905201e+00, -1.38500806e+00, -5.58725063e-01, -7.11878427e-02, -1.18545483e+00, -7.32344305e-01,  1.36589913e+00,
         -4.13594144e-01, -6.78184546e-02, -1.46048587e+00,  1.04368788e+00, -1.16597358e+00, -1.62092420e+00, -3.02289661e-01, -7.70159821e-01, -7.69642826e-01, -3.33627010e-01,
          1.26042596e+00,  1.25208737e+00, -1.42298204e+00,  1.61595634e+00,  3.89307590e-01,  7.50247550e-01,  9.94493816e-01, -4.87850478e-02, -1.60052494e+00,  2.57517163e-01,
         -1.57863172e-01, -8.32375963e-02, -8.56375861e-01, -1.48842720e+00, -2.56171051e-01, -1.11240131e+00, -1.75304223e+00,  3.01054474e-02, -8.58086471e-01,  1.20546894e-01,
          5.05312133e-01, -2.83162203e-01,  1.30871418e-01,  2.46967975e+00, -9.59845192e-02, -3.53151113e-01,  1.52554803e+00,  2.14224799e-01,  4.05817523e-01,  6.84161910e-01,
          1.76792406e+00, -7.56277462e-01, -5.76269711e-01, -2.41121159e-01, -6.50208681e-01, -1.23365001e+00, -5.59646229e-01,  4.04730486e-02, -5.67498092e-01,  4.62334916e-01,
          1.34734779e-01, -1.24019872e+00, -5.08057410e-01, -2.12625337e+00, -3.54339691e-01, -4.88952495e-01, -2.50627722e-02,  1.64996001e+00, -2.46323907e-01,  6.70275176e-01,
          1.78701048e+00,  6.86579860e-01,  7.06653219e-01,  4.67095546e-01,  3.04356782e-01, -7.40824624e-01, -6.40459704e-01, -6.14778926e-01,  3.58632487e-01,  1.66403824e-01,
          4.78655152e-02, -2.15349253e+00,  1.48952082e+00,  1.06489369e+00,  1.93393510e-01, -8.76823358e-01,  1.01845154e+00,  1.16050967e+00, -1.30988585e+00, -8.78269470e-01,
         -7.20971363e-01, -2.21983074e+00, -1.51511104e+00,  5.86103362e-02, -5.17278612e-01,  2.90798235e-01,  8.20286888e-01,  1.31132462e+00,  2.28854508e+00, -4.02283634e-01,
          2.49147721e-01,  7.99396447e-01, -6.78822249e-01, -1.73571221e+00,  2.39799267e-02, -1.37728149e+00, -1.02143735e+00, -1.29135390e+00, -7.01277574e-01, -2.79507302e-01,
          5.11260156e-01, -8.05558540e-01,  5.48541459e-01,  4.10141665e-01,  4.27446771e-01, -1.56665668e+00,  1.88534918e-01, -1.52145369e+00, -2.20175314e+00, -2.28449551e+00,
         -9.53391528e-01,  8.60513223e-01, -8.09069972e-01, -5.78537177e-04, -5.56053486e-01, -8.43832587e-01, -3.97432643e-01,  1.58054367e+00,  4.01775384e-01,  5.32166101e-01,
         -1.20861950e+00,  6.30074935e-01, -1.81104952e-01, -9.76037093e-01,  1.97047902e-01, -9.50173015e-01,  7.15358858e-01, -1.20379416e+00, -8.46814129e-01,  1.01012155e+00,
          7.25745363e-01, -1.49013342e+00,  1.29797955e+00,  6.64069644e-01,  1.55362286e+00,  4.36421688e-02, -1.47740071e+00, -4.07677210e+00,  4.32924199e-01, -1.37888512e+00,
         -1.17530004e+00, -1.03546621e+00, -2.64001370e+00,  5.70602533e-01, -1.43916576e-01,  9.18003728e-01, -2.35440826e-01, -1.16777306e+00, -1.10566581e+00,  2.11838084e-01,
          2.31032366e-01, -1.31841529e+00, -4.83230202e-01,  3.23129030e-01,  6.07115735e-01, -3.96817500e-02,  3.87012908e-01,  1.65270863e-02, -2.79855676e-01,  2.24874841e+00,
         -4.17599839e-01,  2.03253198e+00,  6.15508163e-01, -1.70068313e+00, -1.85694942e+00, -1.23054791e+00, -8.85102426e-01, -2.20892219e+00, -1.06769877e+00, -2.20916404e+00,
         -1.45496544e+00, -3.96293344e-01, -1.26474319e+00, -1.92937680e+00,  1.03787818e+00,  2.40679680e-01,  1.39756162e+00,  5.67602038e-01,  1.03836479e+00, -1.30293061e-01,
         -1.10413122e+00, -1.02987806e+00, -1.38364536e+00,  1.09562623e+00, -1.55441208e+00,  5.49847390e-03,  2.49644142e-01,  1.30802838e+00, -5.74261263e-01,  2.12937692e+00,
          1.60701902e+00,  1.43136095e-01, -3.08576063e-01, -3.36539868e-01, -1.36036911e+00, -1.34615250e+00, -1.10312299e+00,  9.80272847e-01, -5.45146403e-01, -2.02226510e+00,
         -8.10379161e-01, -1.06672447e-01, -3.30968507e-01, -2.96418809e-01,  3.74387838e-01,  1.34438987e-01,  7.07635917e-03, -4.83339350e-01, -7.36925509e-01,  1.64857437e+00,
         -1.06629572e+00,  1.39084066e+00,  1.35653628e+00, -1.31560497e-01, -9.72195184e-01,  1.56158289e+00,  5.98760901e-01,  2.41873049e+00, -3.58687161e-02,  2.54696889e-01,
         -8.14534763e-01,  5.57218805e-01,  1.18213750e+00,  1.35386816e-01,  1.29952862e+00, -1.92300604e+00, -1.30248642e+00, -1.27354637e+00, -2.57796983e+00,  7.50230285e-01,
         -1.70709552e-01, -4.31341420e-01,  1.18582147e+00,  5.17433939e-01,  5.72478401e-01, -2.12936903e+00,  3.10790730e-01, -6.54052808e-01,  1.14574582e+00, -1.08614004e-01,
          1.53999982e-01,  1.39516059e+00,  1.90233937e+00,  1.13855948e+00,  1.55973785e+00,  9.18041466e-01,  4.14923230e-01, -1.38621271e+00,  9.00986951e-01, -6.38127840e-01,
         -3.76937855e-01, -1.22227469e+00, -6.46253738e-01,  5.33485524e-01, -4.37230179e-01,  5.56909630e-01, -3.51161497e-01,  1.49263560e+00, -7.07162452e-01, -5.15046852e-01,
          3.75924223e-01,  8.93387522e-01, -1.06773849e-01,  9.42335989e-01, -2.56871019e-01, -3.85403438e-01,  9.01962774e-01,  1.96016419e+00, -6.65619410e-01,  5.52775331e-01,
          3.31439396e-01,  6.65753168e-01, -1.03395206e-01, -3.07209868e-01, -3.47713544e-01,  2.49661234e-01, -1.41168769e-01, -1.95041099e+00,  6.33746926e-01,  5.25185850e-01,
         -2.07886071e-02,  1.29031286e+00, -1.11416529e-01,  1.34382403e-01, -1.15810496e+00,  1.39521147e+00, -7.37102500e-01, -1.67362324e+00,  2.09530435e+00, -9.09631670e-01,
          1.07260484e+00,  2.08927381e-01,  7.81404637e-01, -8.75719911e-01,  6.59138803e-01,  3.12203116e-01,  6.02270955e-01,  2.71636141e+00, -8.92948530e-01, -3.45389198e-01,
          4.35559978e-01, -6.64923085e-01,  6.30169344e-01, -1.74533015e-01, -3.80609006e-02, -1.55578739e+00,  3.18149736e-01,  4.70271155e-01,  5.20563303e-01,  7.43782433e-01,
         -1.49074903e-01,  6.45785431e-01,  5.16048428e-01, -5.79340242e-01, -8.33208297e-02,  8.92837000e-01,  6.42312522e-01,  2.75856377e-01, -1.73238072e+00, -6.02807545e-01,
          3.71292665e-01,  2.67906292e-01, -1.77587857e-02, -1.08994997e+00,  2.01405911e-01,  2.90755305e-01, -1.20975445e+00,  2.27283307e-01,  4.99128119e-01,  1.49429507e-02,
         -6.95924765e-01, -6.60979462e-02,  1.09460964e+00, -2.22025810e-01, -2.21818737e-01,  1.75366613e+00, -8.31477297e-01,  1.58392570e+00,  2.92080373e-01,  2.80529808e-02,
          2.21680784e-02,  1.24219817e+00, -2.58028565e+00,  8.16294386e-01, -3.85772376e-01, -1.21715305e+00,  7.54599420e-01, -9.24276902e-01, -5.23756603e-01,  8.60450021e-01,
          3.85363644e-01,  7.48086018e-01, -5.16803481e-01,  1.33905372e+00,  6.33883030e-01, -2.38503221e-01,  2.63574365e-01, -1.14629829e+00, -2.61670715e-01, -1.24744427e+00,
          1.94820785e+00,  3.59392002e-01, -6.77031349e-01,  1.83842587e+00,  3.86347070e-01,  3.29678552e-01, -4.31594821e-01, -1.15809393e+00,  9.04312540e-02,  1.43110792e+00,
          2.01690219e+00, -6.18298786e-01, -1.30941205e+00, -1.82246438e+00, -1.82346352e+00,  7.54709508e-01, -4.06598225e-01,  3.24180102e-01, -2.97731191e-01, -6.45760589e-01,
         -1.67355011e+00, -1.01527941e+00, -8.36502856e-01, -1.13107184e+00, -1.79261686e+00, -1.36744981e+00,  9.18352854e-01, -1.06630340e+00, -3.43184781e-01,  2.69883104e-01,
         -7.20624363e-01,  4.61754425e-01, -6.62227858e-01,  1.34207533e+00, -2.78342698e-01,  4.13861659e-01, -1.93772874e-01, -1.22808897e+00, -2.10887225e-01,  2.75460468e-01,
          1.08468637e+00, -4.94856999e-01, -3.90347394e-01, -5.09853946e-01,  3.02684582e-01,  1.52883727e+00, -1.48819517e+00,  9.04952109e-01, -1.07019354e+00,  1.08371591e+00,
          6.36197484e-01, -6.10191444e-01, -6.09395670e-01, -2.80371408e-01, -4.09133298e-01, -6.62145098e-01,  7.60960221e-01, -1.18514914e+00,  1.83078355e+00, -5.71992153e-01,
          1.57587576e+00, -1.02822808e+00,  1.50043102e+00,  1.24469272e-01,  8.65600492e-01,  2.16608052e-01, -1.44284985e+00,  9.56878150e-01,  5.31031441e-01,  3.33567680e-01,
          9.52988023e-01, -4.40799546e-01, -5.94435726e-01, -7.20568268e-01, -7.49913126e-01, -9.08300728e-01, -5.54931709e-01, -1.10046803e+00, -6.29873777e-01,  1.49634483e-02,
          4.37237073e-01, -1.26189618e+00,  1.52652918e-01,  1.43131175e-02,  9.12003927e-01,  1.17126250e+00,  7.89003620e-01, -9.15115438e-01, -1.41105860e-01,  5.70277262e-02,
          2.50959052e-01, -3.91170953e-01,  8.54202719e-01,  5.80422099e-01, -1.12141634e-01, -5.65175935e-01,  6.99531192e-01,  1.19659572e+00,  8.45702306e-01,  1.68054009e+00,
          6.32786564e-01, -1.48938354e-01,  2.93307385e+00, -1.70073593e-01, -1.60554021e+00, -1.17569757e+00, -9.43402432e-01, -1.79339767e-01, -5.22460579e-01,  8.96519485e-01,
          9.56111452e-01, -2.01888818e+00,  5.43825826e-01,  2.62135699e-01,  5.52024478e-01,  6.58695947e-01,  1.00224981e+00,  8.63947055e-01,  1.45464459e-01, -1.59048640e+00,
          6.35553945e-01, -8.14728396e-02, -2.69887432e-01, -7.01497257e-01,  4.35591693e-01, -6.96570293e-01, -2.07291780e-01,  8.99848960e-01, -8.81053720e-01, -7.25622665e-01,
         -4.14702917e-01, -9.16138052e-01, -1.34101870e+00,  1.65567166e+00, -3.89096898e-02, -2.30513962e-01,  4.44666660e-01,  1.52315327e+00, -1.06352204e-01,  6.00175909e-01,
          1.17270263e+00, -8.95900896e-01,  6.65328098e-01,  9.80945806e-02,  2.52480281e-01, -7.66508236e-01,  7.87363433e-01, -2.40435512e-01, -1.75877831e-01, -6.60560809e-01,
          1.09190672e+00,  6.28610529e-01, -4.29527597e-01, -1.67540180e+00,  1.32711896e+00, -9.86296287e-01,  1.63773221e+00, -2.95454005e-01,  6.50868016e-01, -4.96221528e-01,
         -4.68274288e-01, -2.05254865e-01,  2.45639698e-01,  6.90071949e-02,  1.18659847e+00,  6.11084907e-01, -2.09853636e-01, -2.93293246e-01,  5.44729664e-01, -1.61119893e+00,
          6.46474617e-01,  1.55058817e-01, -6.73522398e-02,  6.09747423e-01,  1.76657217e+00, -1.29965855e+00, -1.31074370e+00,  5.09026586e-01, -1.37672173e+00, -1.36808911e+00,
         -7.00095613e-01, -4.02655818e-01,  1.42874876e+00,  7.52663830e-01, -2.49019090e-01,  2.10468917e+00, -4.69615336e-01,  7.93085650e-01,  1.80160926e+00,  1.31526974e+00,
          1.58551986e-01, -2.08766289e-01, -3.76776432e-01, -5.75079243e-01,  7.59394708e-02, -9.87230485e-01, -8.07161796e-02,  1.63872040e+00, -2.91967157e-01,  3.00685319e-01,
         -1.67848601e+00,  1.44229399e-01, -3.81242213e-01, -2.89356353e+00, -1.21945000e-01, -4.54744302e-01,  4.50006910e-01, -8.14794034e-01, -3.06437529e-01,  2.35622150e-01,
         -4.21536388e-01, -6.58509117e-01, -1.36785827e+00, -8.64885608e-01, -9.85832522e-02, -1.79842220e+00, -1.96876699e-01, -1.72761883e+00,  6.11892165e-01,  1.05550760e+00,
         -1.17631239e+00, -2.16512583e-01, -4.08395645e-01,  1.65129592e+00,  1.72193835e-01, -2.12073689e+00, -1.10501245e+00,  6.33745649e-01, -5.02957964e-01, -8.71011143e-01,
         -2.38941998e-01, -1.42975712e+00,  2.08610302e-01, -2.65738136e-02, -3.57284526e-01,  1.22329970e+00,  1.02165561e+00, -1.62154526e+00, -6.79273872e-01,  3.12389246e-01,
          1.76300564e+00, -1.83440107e+00, -5.25074216e-01, -1.17522924e+00,  4.49230760e-01,  1.10925884e+00,  5.04957791e-01, -7.03222658e-01, -2.38196653e-01, -9.82074229e-01,
         -1.77524249e+00,  1.09398704e+00, -1.02607413e-01, -5.94689572e-01,  3.24111952e-01, -6.31623863e-01,  2.91296495e-01, -3.27083571e-01,  1.01525218e+00, -1.44070096e+00,
         -1.55335916e+00,  3.71830215e-01, -4.93521704e-01, -3.42821357e-01, -5.67503734e-01,  6.67334881e-01, -1.21679971e+00, -1.11561016e-01,  8.27491625e-01,  3.81990882e-01,
          2.10825189e+00,  3.12973908e-01,  1.34173747e+00,  2.45476092e-01,  4.32833986e-01, -1.09376869e+00, -1.18139111e+00, -6.71133902e-01, -9.37174591e-01, -6.86978788e-01,
         -7.19007174e-01,  2.41542511e-01, -2.51311306e+00,  7.17658460e-02, -9.68544069e-01, -3.95887760e-01,  6.58765044e-01,  8.39345674e-01, -2.11611323e-01, -9.08959236e-01,
         -4.58397142e-01,  2.78387210e-01,  8.77436768e-01, -1.59846745e+00],
        [ 9.40346139e-01, -1.89141160e+00, -1.26636135e-01,  1.28706970e+00,  2.41807134e-01, -5.46884726e-01, -2.88831528e-01, -1.09552412e+00, -1.46456848e+00, -8.88201781e-01,
          6.20727942e-01, -7.40755735e-01,  1.68741988e+00,  8.79896021e-01, -1.99117247e-02, -7.90538064e-01, -7.84155792e-01,  4.59870850e-01,  1.31760397e-01,  2.34100520e+00,
         -9.51176119e-01, -3.02423321e-01, -9.50399321e-01,  1.08134702e+00,  4.44537117e-01,  7.06794100e-01,  4.29220466e-01, -1.64608372e+00, -7.63502587e-01, -1.57280424e-02,
          8.05010840e-01,  6.29035028e-01, -5.41379905e-01, -9.98825078e-02, -3.49567815e-01, -5.92892615e-01,  1.59841209e-01,  1.31817084e+00,  1.11813969e+00, -1.00453763e+00,
         -1.04013414e+00,  1.49609653e+00, -2.08120552e+00,  9.84482037e-01, -2.69346943e-01, -1.06058584e+00, -2.02502471e+00,  1.13030939e-01, -4.87677210e-01,  4.43529533e-01,
         -1.79502318e-01, -2.00712643e-01,  5.67116539e-01,  6.81347085e-01,  5.71608873e-01, -7.83024478e-02, -4.48694396e-01,  2.97743631e-01,  9.13609191e-01,  1.88893778e-01,
          1.43727513e+00,  9.01874802e-01, -2.39960333e-01,  9.74728347e-01,  3.12736503e-01,  2.77203253e-01, -1.04447435e+00, -2.00277145e-01,  9.85738156e-01,  2.49218662e-01,
          9.03725272e-01,  2.37777246e-01, -9.82000202e-01,  3.52112144e-01, -9.06962068e-02, -4.52392482e-01, -8.03980552e-01, -1.58899344e+00, -8.05201936e-01,  2.80607685e-02,
          2.19048215e+00,  9.64285462e-01, -1.30914698e+00,  1.64719758e+00,  4.13311417e-01, -9.80513833e-02, -9.91160349e-02,  7.41967614e-01,  3.29137966e-01,  6.29434785e-01,
          9.24098261e-01,  1.04453640e+00, -4.94927313e-01,  2.67649518e-01, -1.39410846e-01, -7.66737028e-01, -9.20221791e-01,  4.19242249e-01, -2.27950675e-01, -3.54920395e-01,
         -2.85487382e-01,  1.43237305e+00, -1.55266710e+00, -1.37527342e+00, -5.02261283e-02,  1.31978206e+00,  7.61429484e-01, -4.79285301e-02, -9.23220753e-01,  7.13723541e-01,
          1.00702045e+00,  1.83586206e-01,  4.32544463e-01, -5.03937024e-01,  8.13640208e-01,  3.16305974e-01, -3.89949035e-01,  1.03180467e+00,  1.32407191e+00,  1.11247719e+00,
          8.56735506e-01, -9.13982461e-03,  6.95143003e-02, -7.68716384e-01,  1.76680300e+00,  5.33599226e-01, -3.40475068e-01, -3.82448366e-01, -1.18106227e+00,  1.12058854e+00,
         -6.15570691e-01, -3.75794303e-01, -1.12341781e+00, -7.51406505e-01, -3.72497561e-02, -1.07491085e+00, -1.49816926e+00,  5.53768929e-01,  6.83102885e-01, -1.91526027e+00,
          1.83068735e-01, -5.94882581e-01, -7.58882415e-01, -5.18632908e-01, -1.84770569e+00,  2.07193448e+00, -2.83085629e-01, -2.47897168e-01,  2.33991457e+00,  9.86773032e-01,
         -1.61983087e+00,  9.00588117e-01, -7.10207072e-01,  1.69777109e+00,  1.09116743e+00, -1.07150159e-01,  2.17517469e+00,  5.73682801e-02,  3.68887955e-01,  2.70604570e-01,
         -7.50277590e-01,  7.61281711e-03, -1.60499422e-01, -8.64595931e-01, -1.12731534e+00, -7.71959218e-01,  4.01713663e-01,  5.70676106e-01, -1.91733688e-01,  1.71284236e+00,
         -6.05462562e-01, -1.85775073e-01,  9.31413146e-01,  1.55814001e-01,  1.03822910e+00,  1.51297613e+00,  5.64896540e-01,  8.76505557e-01,  5.43368417e-01,  9.29690421e-01,
         -1.03473497e+00,  1.02900002e+00,  1.05618120e+00,  1.07469866e+00,  1.16835536e+00, -1.65665840e+00,  1.70715418e+00,  4.74091738e-01, -3.36430420e-01, -1.37748317e+00,
         -2.27163692e-02, -5.49777385e-01, -8.63948628e-01,  1.57508648e+00,  1.69491765e-02, -7.29106968e-02,  9.23419209e-01, -1.04962901e+00,  4.90995919e-01, -1.36399323e+00,
         -9.13759676e-01,  1.10121307e+00, -3.04722438e-01, -9.40929719e-01,  9.13381430e-01,  4.32687724e-03, -7.19183809e-01,  5.43984551e-01,  5.75383727e-01, -3.98801462e-01,
         -4.24223396e-01, -5.01063502e-02,  1.15906893e+00,  1.12931215e+00,  1.96048202e-01,  4.91679760e-01, -1.43196123e-01,  5.53316562e-01, -5.63354053e-01, -1.08028793e+00,
         -2.33334097e+00, -3.80741349e-01,  6.60420619e-02,  1.65033920e+00, -7.71791627e-01,  1.96081292e+00, -5.28996081e-01, -1.20711518e+00,  2.02720915e+00, -1.70918086e+00,
          1.61598029e-01, -2.18082106e+00,  1.38337395e+00, -5.82023846e-01,  6.76113683e-01,  5.55731152e-01, -6.31461504e-02,  2.08422163e+00,  1.86264017e+00, -7.49222501e-01,
          1.33527562e+00, -8.95129344e-01,  4.42009517e-01,  5.41385765e-01,  3.16656438e-02,  7.01642897e-01, -9.75803237e-02, -6.87792656e-01, -2.31958775e+00, -2.54960276e-01,
         -5.38490533e-01,  3.04460583e-01,  4.07700117e-01,  7.08831791e-01, -4.85213905e-01,  7.48076757e-01, -5.22557291e-01,  1.09014525e-01,  2.29855334e-01, -1.86966775e+00,
         -5.55719647e-01,  7.88342079e-01, -9.67403530e-01,  3.88098771e-01, -1.33349596e+00, -2.85957446e-01,  5.78295983e-01, -6.59544317e-01,  2.94014723e+00,  1.45428302e+00,
          4.60913625e-01, -1.70398754e-01, -9.37013753e-01, -1.13938433e+00,  1.05370399e+00, -7.23628971e-01, -8.01809185e-01, -9.64361822e-01, -6.90496220e-01, -7.19399452e-02,
          5.61826804e-01,  5.32179264e-01, -3.39034844e-01, -9.65586504e-03, -2.90598323e-01,  1.37714969e-01,  5.94722569e-01, -9.61679070e-01, -3.36621469e+00, -2.53338144e+00,
          3.62288754e-01, -1.40747575e+00, -1.01628335e+00, -1.27518655e+00,  1.51916504e-01, -1.33333378e+00,  7.86592699e-01,  9.62624051e-01,  1.37350290e+00,  1.25319537e+00,
          7.89193028e-01, -4.64835911e-01,  1.63613751e+00,  1.42422291e-01,  5.20465389e-01,  5.71089293e-02,  1.28226891e+00,  8.25765947e-01, -3.53714222e-01,  3.69271635e-01,
          8.23837137e-01, -6.51489818e-01, -1.38558025e-01, -1.07777889e+00, -1.26789636e+00, -2.84508058e+00,  8.47002520e-02, -1.98413901e+00, -1.61337794e+00, -9.83920417e-02,
         -1.12851534e+00, -7.07209490e-01, -8.69042558e-01, -4.31537137e-01, -6.01345868e-01, -1.07795354e+00,  4.58830893e-01,  2.10748287e+00,  5.49624458e-01,  9.12751492e-01,
          1.45506091e+00,  1.81095538e+00,  1.97788592e+00,  3.63230478e-01, -1.31597114e+00, -2.22093569e+00, -1.52734130e-01, -8.64832895e-01, -2.74414741e-01, -6.67891444e-01,
          6.74523964e-01,  6.07934896e-01, -4.35351028e-01, -1.25175325e-02, -9.72504418e-01, -8.39019370e-01, -2.88443016e+00, -2.11935484e+00, -1.41518705e+00, -2.74991404e+00,
         -1.14717211e-01, -7.25146063e-01, -8.35440173e-01,  1.40314922e-02, -1.21912258e+00, -1.96520789e-01,  8.64464995e-01, -6.60324533e-01,  1.09857092e+00,  1.78467999e+00,
         -4.71037113e-01,  1.58632890e-01,  4.89468422e-01,  4.90114479e-01, -9.66929603e-02, -8.32553076e-01, -4.56923320e-01,  1.00759647e+00, -1.81401690e-01, -3.37887690e-01,
         -1.73102512e-01, -7.21379611e-01,  6.03393288e-01, -1.71884041e-01,  7.83095278e-01, -1.27405097e+00,  2.62609715e-01, -1.26689746e+00, -4.10620829e-01, -8.47966529e-01,
          8.49101265e-02, -2.41008308e+00,  4.23276427e-01,  6.90788814e-01, -8.00995612e-01,  2.26905748e+00, -2.06511370e+00, -1.93077098e+00, -5.96194871e-01,  4.78181922e-01,
          2.10821677e+00, -5.44921706e-01, -7.20250636e-02, -1.81050027e-01,  8.29265781e-01, -3.49612588e-02, -5.03071899e-01,  2.53301866e-01,  9.13712013e-01, -2.14669219e-01,
         -1.18795902e+00, -1.14088107e+00,  1.99087243e-01,  2.33599858e-01, -4.93304982e-01, -1.32623739e+00, -1.66285204e+00, -1.11956172e+00, -7.48950914e-01, -7.09677275e-01,
          1.47613437e-01, -1.54884639e+00,  3.15872743e-01,  1.83260539e-01,  7.08894052e-02,  1.09869855e+00,  4.18665888e-02, -1.83596823e-01,  2.04348489e-01, -2.96792737e-01,
          2.23595257e-01, -6.19082802e-01, -1.87919899e+00, -3.51550393e-01, -8.39402473e-01, -4.63454161e-01,  1.20069227e+00,  1.05507317e+00,  2.35044668e-01,  1.27640573e+00,
          1.26318558e+00, -4.35243117e-01, -2.38070491e-02, -1.18671017e+00, -2.03425145e+00, -2.24101198e+00,  1.88247526e-01, -8.45064499e-01, -2.36602714e-01, -6.61518004e-01,
          1.37547957e-01, -4.98796420e-01, -7.61571085e-01, -3.29805317e-01,  1.45398806e+00,  7.57628102e-01,  1.37205596e+00, -1.19059503e+00,  5.27762251e-01, -2.84623415e-02,
         -1.83549226e+00,  4.17974119e-01, -1.23036973e+00,  2.08050480e-01,  2.19398979e-01, -5.02010301e-01, -5.67121402e-01,  6.50630881e-01, -6.52631667e-01, -1.54578378e+00,
          2.27036934e-01,  4.36796207e-01, -4.17086919e-01, -3.47480869e-01, -1.14846258e+00, -2.45065710e-01, -1.01608660e+00,  7.68363796e-01,  1.10351794e-01, -9.04781990e-01,
          4.87986526e-01,  1.36115382e+00, -8.69611923e-02,  6.84802577e-01, -4.01440246e-01,  2.31418614e-01,  9.00212393e-01, -1.24415375e+00, -6.18677546e-01, -5.71775007e-01,
         -9.82110068e-01,  3.88538204e-01,  4.62676963e-01,  1.98989265e+00,  2.16334394e+00, -2.41608657e-01,  3.82351932e-01,  2.07583899e-01,  1.22319181e+00, -7.63890736e-01,
         -7.19866401e-01, -1.43470141e+00,  1.52798896e+00,  2.77183924e-02,  6.92759650e-01,  2.72814152e-01,  8.83047786e-01, -4.41256810e-01,  1.83791890e-01,  3.60028127e-01,
          7.03768767e-01,  1.40904173e+00,  5.59792338e-01, -1.03807617e+00,  8.43493691e-01,  3.34316275e-01,  3.55044880e-01,  1.43064993e-01,  6.19632922e-01, -5.31157926e-02,
          4.83910425e-01,  1.43805006e+00, -5.60188568e-01,  1.23444941e+00,  1.68047637e+00,  3.25243170e-01, -2.30617574e+00, -1.82283679e-01,  8.57570682e-02, -1.92218291e+00,
          8.95297183e-01,  1.34320276e+00,  2.44903354e+00,  6.18432073e-01,  7.12858986e-01,  1.81072931e+00,  2.43711235e+00, -7.20870784e-01, -9.11194956e-01, -2.98865402e-01,
         -8.06543136e-01,  7.37841783e-01,  1.20168835e-01, -1.34459638e+00, -5.84978697e-01,  9.82148987e-01, -1.35759125e+00,  8.90910011e-01,  1.12511944e+00,  1.76896605e+00,
          9.74438647e-01, -2.23907688e-04,  1.12488343e+00,  9.01575179e-02,  2.34129662e+00,  1.10061140e+00, -1.65922610e+00,  4.21121811e-01,  2.99681023e-01, -1.11199960e+00,
         -2.82781073e-02, -2.64005834e-01, -2.44745078e-01,  3.18587438e-01, -9.18498742e-01,  1.48348774e-01,  3.87932296e-01,  1.66955214e+00,  3.19431730e-01, -8.75460768e-01,
         -1.66189585e+00, -1.60820130e-01, -1.35607549e+00, -5.77016659e-01,  8.76920071e-01,  2.76148704e+00, -1.91055528e-01,  1.85034990e-01,  6.05093344e-01,  8.35533707e-01,
         -2.86631627e-02, -2.13922354e-01,  1.01388161e+00,  1.01083893e-01, -5.45262168e-01,  6.01331627e-01, -1.25406300e+00,  2.74684697e-01,  9.79790647e-01, -1.88584103e+00,
          5.86961679e-02,  9.64448945e-01,  1.69957280e+00,  8.44958495e-02,  1.01693463e+00,  4.62960457e-01, -6.32416267e-01, -6.45746590e-01, -1.05523677e-01,  5.72161685e-01,
         -4.78626987e-01,  1.10192292e+00,  6.15657117e-01,  1.16670780e+00,  1.22036180e+00, -9.18122736e-01,  5.70878155e-01, -2.21425849e+00,  5.55532394e-01,  1.40837547e+00,
         -8.84229771e-01,  1.61223422e-01, -1.03234436e+00, -1.35808009e+00,  1.55510905e+00,  9.18759050e-02,  5.07622520e-01,  8.96111637e-01,  1.41970914e+00,  1.29811860e-02,
         -1.79037834e+00, -5.76551339e-01,  6.77762489e-01, -1.02459705e+00,  1.88799424e+00,  4.15527268e-01,  1.76822526e+00,  9.20737992e-01,  9.50615195e-01, -1.47013358e+00,
          1.12661890e+00,  1.16969229e+00, -9.15268821e-01,  8.71886433e-01,  2.74428522e-01,  4.65457284e-01,  5.67356637e-01,  6.12771555e-01, -2.54110106e-01,  4.16619165e-01,
          6.40055316e-01, -2.30712382e-01, -7.04316990e-02, -9.85902347e-01, -2.49692792e-01, -8.35928602e-01, -1.21609879e+00,  6.43399227e-01,  8.88142238e-01,  1.08870588e-01,
          3.52239993e-01, -1.03503128e+00, -4.19423923e-01, -3.79507592e-02, -1.38379798e+00,  6.93785101e-01,  1.50496284e+00,  1.39202882e+00,  2.10501661e-01, -3.14451140e-01,
          8.34046028e-02, -1.76785605e-01,  1.33440566e+00, -6.59792413e-01, -6.61281753e-01,  5.19244094e-01, -5.69627452e-01, -1.01143349e+00, -2.86367518e-01, -1.97816054e+00,
         -4.91639080e-01,  6.96182351e-01, -1.18109629e+00,  7.16428648e-01, -2.39675559e-01, -3.47056433e-01,  3.89621037e-02,  1.10105259e+00,  6.07808480e-01,  2.74917468e-01,
         -4.26785278e-02,  4.80159480e-01,  5.61664791e-01,  4.49276256e-01,  5.10372469e-01, -4.85001564e-02,  4.37613954e-03, -2.91284061e-01,  7.26840976e-01,  7.77772891e-01,
         -8.67677777e-01,  6.11774819e-01, -1.21939407e+00,  9.51614070e-01, -6.87538566e-01,  1.43923442e+00, -1.92501319e+00, -4.52815868e-03, -4.45220308e-01, -2.87007964e-01,
         -1.29312765e+00, -7.75266603e-01,  1.64585363e+00,  2.64447875e-01, -2.48523659e+00,  1.47459734e-01,  6.04550609e-01,  4.23359791e-01,  3.27972338e-01,  2.88638611e-01,
         -4.40733895e-01,  2.03454362e+00,  8.34941345e-02,  1.21908368e+00,  9.56097683e-01, -6.40628447e-01,  1.73449775e+00, -3.64720935e-01, -9.34101753e-01,  1.31659621e-01,
         -1.26559655e-01, -7.38967195e-01, -4.58950159e-01,  1.59694795e-01, -1.64863020e+00, -1.46394186e+00, -2.08433258e-01, -1.44357533e+00, -5.47290896e-01, -2.12333965e-01,
         -1.05956401e+00, -2.33163997e-01, -3.24039460e-01,  2.18355497e+00, -7.44336306e-01,  1.14057000e-01,  4.01288365e-01, -1.46804266e+00,  7.70250666e-02,  2.01656780e+00,
         -4.94218896e-02, -8.44461572e-01, -7.77528594e-01,  5.59228762e-01, -2.00089600e+00, -4.91200684e-01, -8.49223036e-02, -9.08753234e-01,  3.57403350e-01,  1.11267410e-01,
         -6.38090676e-01, -1.77281531e+00,  5.48150209e-01,  3.90199939e-01, -1.13655268e+00,  2.01591126e+00, -4.51949766e-01, -4.62348069e-01,  3.16019489e-01, -3.42989030e-01,
         -9.55353727e-01,  4.82505926e-01,  9.01143873e-01, -5.71577761e-01,  3.00049617e-01, -2.50153064e+00, -2.91967205e-01,  3.93145232e-01,  2.56975077e-02,  3.02755423e-01,
         -2.61298438e+00, -2.95262436e-01,  1.25573287e+00, -4.46900706e-02, -6.22559404e-01, -8.15021724e-01, -1.78938006e-01, -1.45047787e+00, -1.91924685e+00, -2.96209202e-01,
         -1.63857672e-01, -2.21119577e+00,  1.32044803e-01, -6.97775833e-01, -9.85037504e-01, -7.50873053e-01,  1.70193536e+00,  1.80808935e+00, -1.16760725e+00,  9.85786886e-01,
          2.96246674e+00,  3.21380266e-01, -1.00181544e+00, -3.66219606e-01],
        [ 3.05597138e-01, -1.86290333e-01, -2.56186079e-01, -1.10185757e+00, -7.81932582e-01,  1.52560096e+00, -7.60243083e-01,  1.50882811e+00, -9.87167221e-01, -8.63540150e-01,
          1.41609074e-01, -6.16133488e-01, -1.84449801e+00, -6.29343655e-01, -6.77286227e-01, -4.84890606e-01,  9.17831334e-01,  1.63902393e+00,  7.85324884e-01, -1.49258864e+00,
         -9.42565639e-01, -7.23286958e-02, -7.40050855e-02, -1.65243035e+00,  6.02270409e-02,  2.20188634e+00,  1.50594530e-02,  4.47855520e-01,  2.95002838e-01, -6.63505771e-02,
          4.90303816e-01, -7.11403110e-01,  2.55379972e-01, -6.82649692e-01,  1.07086371e+00,  7.78163784e-01,  1.22672241e+00, -1.45406882e-01,  7.26875484e-01,  1.86773086e+00,
         -1.53659591e-01,  1.38161463e-01, -2.41283637e-01, -1.40504618e-01,  4.37202837e-01, -1.16053868e+00, -8.66860466e-01, -5.12808898e-01, -5.07199081e-01, -1.00875530e+00,
         -1.56583265e+00,  9.56577574e-01,  2.37249510e+00, -3.66517149e-01, -1.15313355e-01, -4.42940884e-02, -1.64109686e+00,  1.95875329e-01, -5.44186707e-02, -5.76097339e-01,
         -8.71719265e-01, -1.01898069e+00,  3.63988622e-01,  4.36303933e-01,  8.24648747e-01,  1.78153776e+00,  4.60026242e-01,  3.20030275e-02, -3.73934896e-01, -3.53680680e-01,
          5.75411628e-02, -9.68604683e-01, -6.79564009e-01,  1.24409624e+00, -1.04106212e+00, -1.17060104e+00,  9.11603447e-01, -2.79839718e-01,  9.12895989e-01,  1.14969095e+00,
          7.32849838e-01, -1.57035267e+00, -3.39607066e-01,  1.35967871e+00,  2.44696930e-01,  7.74607716e-01, -7.14467458e-01, -3.20307401e-01,  9.73155869e-01,  5.63908758e-01,
          8.80561441e-02,  3.19959641e-01, -2.55669481e+00,  9.33329789e-01, -6.75439259e-01,  1.98803036e-01,  1.73288480e+00, -9.59596521e-02, -1.21767675e+00,  5.87451581e-01,
         -1.27272322e+00,  1.41321099e-01, -1.51806461e+00,  7.13793557e-01, -9.41649994e-01, -1.61208865e+00, -1.53090830e+00,  1.44049073e-01,  1.12262989e+00, -9.28146676e-01,
         -1.84448731e-01, -6.27116110e-01,  1.19821383e-01, -1.35532631e-01, -4.76423334e-01,  4.92819597e-01, -2.14877991e+00, -1.01366707e+00,  1.06419547e+00, -5.69542978e-01,
         -4.08862433e-01,  2.82239475e-01,  1.16967066e-01,  6.38273834e-01,  6.57578613e-01, -1.73349308e-01,  1.71946291e+00,  4.48008854e-02, -2.85907674e-01,  2.53956725e-01,
         -3.25211161e-01, -2.35991519e-01,  3.66960747e-01,  5.64634600e-01, -1.38417939e+00,  7.06570369e-01, -1.59662355e-01, -7.20562918e-01,  6.02896785e-02,  8.72058787e-01,
          8.57428852e-01, -1.67380955e+00,  9.87393485e-01,  5.16478246e-01, -1.14289279e+00, -3.06477516e-01,  2.62864591e+00,  6.36470402e-01,  2.29934595e+00, -5.82037607e-01,
         -2.10068477e-02,  2.10560485e+00, -9.61309465e-03,  2.00074272e+00, -3.56141908e-01,  9.56366631e-01,  8.76345518e-01, -5.87086775e-01, -2.88814324e-01,  3.47334420e-01,
         -1.44623129e+00, -4.40517961e-01, -1.16591117e+00, -2.14084817e-01, -5.91662626e-01, -8.42572348e-01, -6.81785306e-01,  5.14762380e-02, -1.85999653e+00,  1.14799596e-01,
         -2.51276862e-01, -1.74044433e-01, -3.27876790e-01, -7.84708496e-02,  2.40586207e-01,  1.10314609e+00, -4.80975508e-01,  4.02444621e-01,  8.32875145e-01,  1.58929392e-01,
          3.51463991e-01,  2.83538606e-01,  1.92576154e-01, -4.87130610e-01,  9.01566854e-02, -2.28916100e+00,  4.96596342e-01,  1.29642199e+00, -2.19118847e-01,  6.75983410e-01,
         -5.63728147e-01, -4.28342956e-01,  4.82135964e-01,  2.24821561e-01,  3.12532483e-01,  2.99468015e-02,  9.39643435e-01,  5.33863211e-01,  5.43783958e-01, -3.27837069e-01,
         -1.58313498e+00,  9.94397079e-01,  2.00531645e+00,  1.20363063e+00,  2.93188213e-01,  7.71121286e-02, -1.00969344e+00,  2.37881412e-01,  9.05665380e-01,  4.35416850e-01,
          1.77562745e+00, -1.09480163e-01,  2.93066428e+00, -1.96267984e+00, -1.10902916e-02,  1.21602213e-01, -4.40482753e-01, -8.55022961e-01, -6.30869910e-01, -5.25312475e-01,
          1.39227243e-01, -1.79568736e+00, -5.16127153e-01,  1.19577760e+00, -3.89266207e-01,  6.84575556e-01, -1.22903311e+00, -2.36568218e-01,  3.09045665e-01, -9.20897359e-01,
         -1.04913052e+00, -5.20379113e-01,  9.36490497e-01, -1.57839062e+00, -2.66252228e-01, -9.86898602e-01,  5.64270076e-01, -1.08412944e+00,  4.52456966e-01, -5.99866130e-01,
         -1.63861772e-01,  7.38927813e-01,  1.04479728e+00,  2.51217045e-01, -3.78820035e-01, -2.60195371e+00, -9.70438138e-01, -1.06883712e+00, -1.47121765e+00, -5.58972868e-01,
         -2.59772484e-01,  1.22238119e+00,  1.04394427e+00,  2.00472836e+00, -1.20741584e+00,  1.59140914e+00,  8.61738180e-01,  1.43439238e+00, -3.48142333e-01, -1.08791713e+00,
          3.15554928e-01, -1.48722694e+00, -4.46745863e-01, -3.18010832e+00, -1.42654720e+00, -8.01265559e-01,  3.44781485e-02,  1.91559194e+00, -1.42013436e+00,  4.67782896e-01,
          3.53764613e-02,  7.42864221e-01,  1.70016003e+00, -1.79196377e+00,  1.56433960e-03, -5.97577871e-01,  1.43751910e+00, -1.79995537e+00,  1.77493425e-01, -1.85651248e+00,
         -4.07457433e-01,  5.91500139e-01,  6.65185838e-01,  3.67378682e-01, -6.26109145e-01, -6.29240311e-01, -1.19217237e+00, -8.52905123e-01, -1.74316507e+00, -5.16417651e-01,
         -2.16576762e-01, -1.19506313e+00, -2.56721770e+00, -3.72057510e-01, -4.11776333e-01,  2.49486934e+00,  2.63272784e-01,  9.73643374e-01, -1.11504341e+00,  1.79349227e+00,
          4.36635579e-01,  3.14248360e-01, -4.76779417e-01, -3.65995856e-01, -1.86285176e-02, -1.96193674e+00, -1.76161932e-01, -1.38165023e+00, -5.40792299e-01,  9.15467081e-01,
          2.09245811e+00, -6.40479700e-01,  1.17136034e+00, -5.65981019e-01, -1.32103331e-02, -1.04904473e+00, -1.31720354e+00, -1.34605996e+00, -2.38752986e+00, -2.42792824e+00,
         -1.08785087e+00, -3.07203694e+00, -2.01261837e-01,  1.48005137e+00,  1.44684825e+00,  4.25165788e-01, -2.15312264e-02, -4.46602604e-01,  3.56678932e-02, -5.76682964e-01,
         -9.13916198e-01,  6.19085108e-01, -4.62455008e-01, -5.04285358e-01,  8.36698251e-02, -6.11418007e-01, -9.45855093e-01, -7.65884260e-01, -1.40953907e+00,  7.67432524e-01,
         -1.27144644e+00,  1.27633667e+00,  3.31464722e-01, -1.09922326e+00, -1.86625355e+00, -1.72867949e+00, -2.68249253e-01, -1.86737195e+00, -2.28782423e-02, -3.32624821e-01,
          1.89394821e+00, -7.58780271e-02, -3.74005060e-01,  1.08449221e+00, -2.16462976e+00,  4.22041818e-01, -1.31930122e-01, -1.75448643e+00,  3.70667143e-01, -6.36108051e-01,
         -5.45295968e-01,  2.41308503e+00,  1.11424186e+00, -8.41604246e-01,  5.50183863e-01, -1.45271314e-01, -6.30673025e-01, -5.94937966e-01, -1.44012936e+00, -8.35442099e-01,
         -1.59721026e+00, -1.33361897e+00, -6.90682336e-01, -2.34931029e+00,  3.67277197e-01, -3.23927055e-01, -2.29622854e+00,  4.15379211e-01, -1.04845622e+00,  4.24328847e-01,
          4.03971991e-01, -4.07124213e-01, -3.56971261e-01,  2.42549405e-01, -3.98923151e-01, -2.37219778e+00, -3.90713553e-01, -1.06632169e+00, -1.16426748e+00, -1.16001582e+00,
          2.38124728e-01,  6.76435563e-01,  4.95514371e-01, -4.17754947e-01,  9.27596918e-01,  6.06503871e-01, -7.55610926e-01,  1.32824612e-01, -8.06818536e-02,  3.62118644e-01,
         -6.20789029e-01,  9.83300580e-01, -1.02442813e+00, -4.58864897e-01,  6.68097121e-01,  1.46639243e+00, -1.09639278e+00,  1.72182560e-01, -6.74058636e-01,  5.18250976e-01,
          1.43667803e+00, -1.76873589e+00,  5.60224954e-01, -2.27668708e-02, -7.21900113e-01,  1.23934267e+00,  1.38039809e-01, -1.45320075e+00,  2.16554716e+00,  3.20172661e-01,
          1.76788952e+00,  1.10609173e+00, -3.17246015e-01, -1.01242168e+00,  4.29793622e-01, -1.53851674e+00,  1.56930753e+00, -2.07645202e-01,  1.01873002e+00, -9.97167549e-01,
         -1.33566811e+00, -8.16293144e-01,  7.02176300e-01,  3.51590130e-01,  8.51833568e-02,  5.64237911e-01,  4.86681329e-01, -1.40407016e+00, -1.86510386e+00,  8.16860296e-01,
          1.46636680e-01, -6.31381257e-01, -1.07768812e+00, -1.38672682e+00, -6.55299931e-01,  2.18497162e+00,  9.25214353e-01,  9.53231062e-01, -3.28926621e-01, -1.61456164e+00,
          1.38030000e+00, -5.43442838e-01, -8.82982834e-01, -8.15401795e-01, -2.68710930e-01, -2.96978588e+00,  5.00619686e-01, -1.76999961e-02,  3.42777506e-01, -2.18062757e-01,
         -1.47554444e+00, -9.64337367e-02,  9.38015429e-01, -9.07810856e-01, -2.29186806e+00, -5.11554544e-01, -6.61797140e-01,  2.26455016e+00, -2.09622820e-01,  6.52665363e-02,
         -1.68543194e+00,  4.04724244e-01, -5.78896553e-01,  1.22005307e+00,  2.54967838e-01, -1.04768040e+00, -9.71004781e-01, -2.26441712e+00,  1.35021249e+00, -1.17501149e+00,
         -9.30501482e-01, -3.49235216e-01, -9.06353699e-01, -8.67390105e-02, -9.82502885e-01, -1.77618109e+00,  6.89748958e-02, -7.87799608e-01,  8.34251757e-01,  7.48719477e-01,
         -9.53736418e-01, -7.35494500e-01,  1.90041982e+00, -5.80585516e-01,  1.41624812e-01, -1.35903971e+00,  2.13012535e-01, -5.14442611e-01, -1.52219020e-01, -1.37657722e+00,
          9.66197890e-01,  5.46166430e-01,  2.53488765e-01,  1.29061386e+00,  8.26059776e-01, -1.16394991e+00, -9.74908811e-01,  5.68646768e-01,  2.35579273e-01, -2.24679358e-01,
          1.82112369e-01, -8.94450964e-02,  2.07690436e-02, -1.12595636e+00, -1.17311809e+00, -1.66946259e+00, -2.33700318e+00,  9.93566110e-01,  4.63078306e-01, -7.93859160e-01,
         -5.93888849e-01, -1.94714463e-01,  1.39940321e+00,  4.23460510e-01, -1.48630221e-02,  1.89184533e+00,  6.97315086e-01,  2.78863766e-01, -1.93410346e+00, -1.34197933e+00,
         -1.07928322e+00, -6.28065418e-01,  9.26007343e-01,  7.34069993e-02, -3.49196676e-01, -1.58077858e+00,  6.61900169e-01,  2.10139713e+00,  5.05203917e-01,  2.17440701e-01,
         -1.45954968e+00,  7.91630945e-01, -3.88776470e-02,  2.19256500e-01,  5.20343103e-01,  3.86982774e-01,  8.22233182e-01, -1.99058262e+00,  5.15141924e-01,  1.66409152e+00,
          9.97970491e-02,  1.03644257e+00,  1.18320904e+00,  2.77369581e-01, -6.78455196e-01,  1.18679537e+00, -2.41280044e-01, -1.50108382e+00, -9.87987812e-01,  4.81016515e-01,
         -9.74491392e-01, -2.14288758e-02,  5.52930944e-01,  2.40053540e+00,  1.34222535e+00,  7.21702398e-01,  4.13369255e-01, -3.00371783e-01,  1.51475703e+00,  5.18191814e-01,
          5.67181713e-01,  4.69610427e-01, -1.29491967e+00, -4.17939415e-01,  9.92180308e-01,  7.01563495e-02,  7.49113417e-01, -8.65849317e-01, -1.15752654e+00, -3.55902220e-01,
         -4.53727044e-02,  3.56250159e-01, -5.17577024e-01, -3.61721176e-01,  4.54805442e-01, -6.66808528e-01, -1.16711700e+00, -4.29367439e-01, -2.29873596e-01,  6.65594000e-01,
          1.20524334e+00,  1.60695978e+00,  1.31576582e+00,  1.91478381e+00,  2.43237675e+00, -1.74834858e-01,  4.52776337e-01, -1.17980835e-01,  8.08115636e-01, -9.16619885e-01,
         -1.28262478e-01, -1.45144874e+00,  6.38432790e-01,  4.99808075e-01,  1.08342681e+00,  6.13179846e-01, -1.46997635e+00,  2.14219518e+00,  5.61399321e-01,  1.28139047e+00,
         -8.33398861e-01,  5.97961334e-01, -1.22669719e+00, -1.43030828e+00,  1.00655828e+00, -2.35579301e+00,  6.87005400e-01,  1.18973321e+00,  8.98369715e-01,  8.17449727e-01,
         -3.68747994e-02,  8.35324750e-01,  2.16914897e-01,  1.37802297e+00,  1.04369332e+00,  1.16955792e-01,  3.75210294e-02,  5.60299309e-01, -5.29238938e-01, -1.21446694e+00,
         -4.40370177e-01,  8.93033107e-01,  8.85327496e-01, -4.09922220e-01, -1.31353154e-01,  3.72193734e-02,  1.42625635e-02, -1.05264734e+00,  1.30623163e-01, -1.68309152e+00,
         -1.28475726e+00,  9.46471408e-01, -1.51708783e-01, -1.51326913e+00,  4.25314828e-01,  1.71156960e+00, -3.88900893e-01, -7.68888992e-01, -2.02638985e-01,  9.01110155e-01,
         -7.94403965e-03,  8.90940217e-01, -1.34644797e+00,  7.39586455e-01,  4.18348596e-01, -1.64127149e-01, -2.09664826e-01, -6.11991994e-01, -1.37725341e+00, -2.13417519e+00,
          1.23692499e+00,  6.72962443e-01, -8.36784469e-02, -2.30517768e-01,  1.35051084e+00, -1.92627915e+00,  7.34804865e-01, -6.03442775e-01,  3.35723016e-01,  2.57230464e-01,
         -3.15376217e-01,  4.53841408e-01,  3.05225212e-01,  1.82450371e-01,  9.58901387e-01, -6.68658053e-01,  5.40474589e-01,  8.49574904e-01, -1.20831430e+00, -2.62781344e-01,
          1.63918314e+00,  1.36958149e-01,  2.47237966e-01, -7.99822708e-01,  9.24541109e-01, -1.60538042e-01,  8.09032316e-01, -1.03690398e+00, -5.75906332e-01,  2.36987326e-01,
         -3.05984481e-02,  6.51237483e-01,  3.20247501e-01,  6.34805058e-02, -1.20919380e+00, -4.82014656e-01,  8.46383639e-01, -9.39626490e-01, -4.37783723e-02, -1.70967245e+00,
          1.02463915e+00, -2.21123013e+00, -1.28526533e+00, -5.25663081e-01,  2.53957784e-01, -8.15516059e-01, -7.01155110e-01,  1.24005458e+00, -3.47596146e-02, -1.25627662e-01,
         -1.89907902e+00,  1.16976747e+00,  4.88665314e-01,  9.61362226e-01,  1.38313126e+00,  9.74214011e-01, -4.82963575e-01,  1.09911377e+00,  4.71602799e-01,  5.27986496e-01,
          6.04433689e-01, -1.32352125e-01, -6.09292243e-01, -5.70046211e-01, -1.74099431e+00, -2.30266561e-01, -7.90107757e-01,  1.63405965e+00, -2.74231624e+00,  1.70145291e+00,
         -2.19448105e+00, -1.88375955e+00, -8.94409809e-01,  5.96191775e-01, -2.01025709e+00,  3.46622040e-01, -1.24162564e+00, -1.31248306e+00,  1.14340184e-01, -2.06975284e+00,
         -5.10328874e-01, -7.70699954e-01, -2.07829509e+00,  6.12821715e-01,  9.20799296e-02, -8.40813099e-01, -3.70679067e-01,  1.07943237e-01, -7.61804313e-01,  1.30195591e-01,
          1.00486852e+00,  1.15305886e+00,  9.76829849e-01,  1.65039921e+00, -3.96701803e-01,  3.03457011e-01,  9.24644754e-01,  2.49066028e-01,  7.10369690e-01,  1.04741207e+00,
         -2.37289476e+00, -6.14139205e-01,  6.48763807e-01,  1.94708511e-01, -1.01208900e-01,  2.14813814e-02,  5.10992989e-01, -4.69898006e-02, -7.50550848e-01,  1.40087790e+00,
          2.85612810e+00,  1.55047888e-01, -1.01383497e+00,  2.40323557e-01, -1.05022997e-01,  1.09857847e+00,  4.49679990e-01, -5.86706932e-01, -3.07306221e+00,  1.22145114e+00,
         -1.21561182e+00, -7.18968512e-02, -3.83017081e-01,  8.41442979e-01],
        [ 1.53926565e+00,  9.91658639e-01,  8.29970470e-02, -8.17388120e-01,  1.08372491e+00,  1.14411576e+00,  2.19002172e+00,  3.71890565e-01, -3.27570510e-01,  2.59482662e+00,
         -2.35137921e+00,  1.76365529e+00, -6.55353492e-01,  1.02548731e+00,  3.19328851e-01,  2.15571792e+00,  1.56237959e+00,  1.77341860e+00, -2.62730933e-01, -1.40793760e-01,
         -1.81995029e+00,  9.11031959e-01,  1.02475438e-01, -6.09015286e-01,  3.01749610e-01,  1.14230144e-01,  8.77140038e-01,  3.70771401e-02, -1.81629666e-01, -1.21582191e+00,
         -9.85861244e-02,  7.81032832e-02,  1.08987179e+00,  2.18837857e-01,  2.89806210e-02, -6.07713262e-03,  6.73167594e-01, -1.28830390e+00,  9.24298458e-02, -7.85550267e-01,
         -9.92945922e-02,  3.30396898e-01, -1.17829096e+00, -1.33234683e+00,  1.76170496e+00,  4.47019808e-01,  3.37360071e-02,  4.46711902e-01, -2.16654007e+00, -5.20302736e-01,
         -3.92568667e-01,  8.97091091e-01, -7.57184321e-01,  2.13030326e+00, -4.31426644e-02, -1.65201516e+00, -3.11480744e-01,  3.25407444e-01,  1.01609283e-01, -8.00841414e-01,
         -6.91238298e-01,  5.95474440e-01, -7.79942374e-01,  8.21312109e-01,  5.86897927e-01,  8.79650204e-01, -3.87050298e-01, -1.02251743e+00, -1.04746423e-01, -1.17525248e+00,
         -1.13369526e+00,  5.59085365e-01, -1.23947853e-01, -6.77357921e-01, -1.13902791e+00, -1.00091949e-01, -1.02404212e-01, -5.49168932e-01,  1.04072949e+00, -4.13813505e-01,
         -1.30600488e+00, -7.22549470e-01, -3.09334074e-01,  9.00945320e-01,  1.12376785e+00, -1.13512702e-01, -7.51946252e-01, -7.19641820e-01, -1.13960810e-01,  3.62027437e-01,
         -2.50324199e-01,  1.01046936e+00,  2.03812997e+00, -3.08266283e-01,  1.42211996e-02,  2.57558105e-01, -1.22668695e+00,  8.81507760e-01,  7.43916880e-01,  1.40559139e+00,
         -1.22320298e+00, -1.46462618e+00,  4.90267751e-01,  1.02172218e+00, -1.66788433e+00,  1.12260218e+00, -5.20723042e-01,  2.12252472e+00, -2.97097521e-01, -2.64765651e-01,
          2.04726222e+00, -5.80623727e-01,  1.77998102e-01,  7.28011724e-01,  1.69096388e+00,  1.00438617e+00,  1.04740474e+00,  3.32770963e-01,  6.21515835e-03,  1.34291168e+00,
         -1.48643463e+00,  2.07023075e-01,  2.37352729e+00, -4.33126063e-01,  1.26396249e+00,  7.09889227e-01, -2.89637738e-01, -3.24200387e-01, -1.80707722e+00,  8.29338821e-01,
          1.23591272e-01,  2.74645880e-01, -1.11231970e+00,  2.14502957e-01,  1.02655887e+00,  2.09446590e-02, -8.90899661e-01,  6.41111488e-01, -4.50611522e-01, -1.39511410e+00,
         -4.76095361e-01,  3.00203186e-01,  1.21248766e+00,  6.27460798e-01,  1.05697107e+00,  1.48204832e+00,  2.61837733e-01, -1.88797526e+00,  7.02414528e-01,  2.42425948e+00,
         -3.95340951e-01,  4.60980051e-01,  7.66941127e-02,  7.49200919e-02, -6.53447475e-01, -7.89097055e-01, -7.87351533e-01,  1.12441274e-01, -1.26933360e+00, -2.42872916e-01,
         -2.35186852e+00, -3.57836732e-02, -1.36518783e+00, -1.27401086e+00,  2.05735457e+00, -8.79054997e-01, -1.86206810e+00,  1.04990270e+00,  6.39282772e-01,  1.28586633e+00,
         -1.67477520e+00, -1.19056246e+00,  1.18877866e+00,  9.70585695e-01,  5.78329512e-01,  2.68500062e-01,  5.01188984e-01, -3.89691686e-01,  1.01675268e+00,  1.79872015e+00,
          1.02250389e-01, -3.75045797e-01, -7.67652870e-01,  2.24295823e+00, -8.53090123e-01,  7.06738422e-01, -2.44243396e-01,  1.46705482e+00,  3.71157031e-02,  2.01608145e-01,
          9.02786960e-02,  1.93121349e+00, -7.09422420e-01, -9.72620093e-01,  2.67067470e-01, -2.48116165e+00,  3.86959521e-02, -1.34525425e+00, -7.22182311e-01, -2.10728463e-01,
         -1.05051555e+00,  1.73984636e+00,  4.81714705e-01,  1.24434730e-01, -9.86688628e-01,  5.49399901e-01,  3.88219678e-01, -2.05182960e-01, -4.95935376e-02, -6.89458976e-01,
         -1.31804888e+00, -1.39577228e+00, -1.66203654e+00, -8.56204595e-01,  4.83940911e-01, -5.87245955e-02,  6.45873305e-01,  4.16837340e-01, -3.21701041e-01,  5.35633825e-01,
          6.17802045e-02,  8.59036061e-01, -8.32471381e-01,  1.18999771e+00,  1.03579752e+00, -1.36832199e+00, -1.48796945e+00, -7.75648617e-01,  2.80271985e-01, -3.53790007e-01,
         -3.86621694e-01,  1.50306241e+00,  1.04225654e+00,  1.28147197e+00, -4.66700599e-01,  3.39559911e-01,  3.77919383e-02,  1.16459543e+00, -6.46736664e-01, -2.06501864e+00,
         -4.97467455e-01,  1.17791421e+00, -2.26749616e+00,  2.10113498e+00, -1.26994762e-02, -4.32201260e-01,  1.69997882e+00,  8.59082682e-01, -1.13955293e-01, -4.80876635e-02,
         -8.79293855e-01,  3.57663515e-01,  1.92217339e+00, -5.40090603e-01,  4.20522993e-01, -2.06946150e-01,  7.65149448e-01,  9.69345795e-02,  1.10616885e+00, -1.63490461e+00,
          4.34654847e-01,  1.17023936e+00,  2.21805261e+00, -4.34007587e-02, -2.54163760e+00, -7.42858468e-01,  4.20585048e-01,  8.85635166e-01,  1.05562028e+00,  1.28729069e+00,
         -7.92607414e-01,  1.34562316e+00,  1.54184849e+00,  2.36997088e+00,  6.46115303e-01,  3.00077464e-01,  5.21432910e-01,  1.85683094e-01, -3.88417248e-01,  1.62999817e+00,
          6.23955692e-01,  8.86715759e-02, -5.96339084e-01,  1.05648222e-01,  2.03726399e+00,  2.57630191e-01,  6.11197642e-01,  4.25979037e-01,  1.17089529e+00, -2.77162636e-01,
          6.56880860e-01,  1.89387171e+00,  9.55900295e-01, -1.11745661e+00, -9.00755854e-01, -1.33853962e+00,  1.07570710e-01, -6.93732219e-01,  1.05986855e-01,  6.58148405e-01,
          8.93806934e-01, -1.32207993e+00, -4.24871520e-01, -2.10060938e-01,  2.06585797e-01,  8.46886981e-01, -1.13731851e+00, -7.73651068e-01, -1.82920848e-01,  1.19072502e+00,
          2.89424764e-01,  2.07460807e-02, -9.21440338e-01,  1.98558900e-01,  1.82899492e+00,  4.54930576e-01,  9.52517915e-01,  1.07611210e+00, -5.08922324e-01, -8.46403451e-01,
         -2.40830939e-01, -8.32113769e-01, -4.65850284e-01,  1.14319299e+00,  5.32766727e-01,  2.29727993e+00,  1.56797166e+00, -1.24483607e+00,  1.71487182e+00, -3.90894064e-01,
         -8.36522742e-01,  1.58392036e-01,  9.34772982e-01,  7.68975525e-01,  1.16457725e+00,  3.87264402e-01, -5.89271460e-01,  2.17383445e-01,  5.95713092e-02,  9.16024324e-01,
         -2.71369051e-01,  4.17287182e-01, -1.16545569e+00,  1.63560509e+00, -1.37475274e+00,  1.50981720e+00,  8.62655023e-01, -7.93734609e-01, -1.65329305e+00,  1.47803197e-01,
         -5.76531306e-01, -1.68071408e+00,  8.58959033e-01, -2.20898766e+00, -3.02172556e-01, -2.97308163e-01, -2.61345751e-01,  5.40932741e-01,  1.89714032e+00,  2.32246048e-01,
         -2.19677526e-01, -1.62495467e+00,  8.69921569e-01,  6.42659826e-01,  1.04861878e+00, -4.81821290e-01, -1.11318184e+00, -1.14080517e-02, -9.30157089e-01,  1.02702253e+00,
          1.22755901e-02, -1.04627071e-01,  1.90796933e-01, -1.82145282e+00, -1.91419617e+00,  1.70431853e-01, -7.21407270e-01, -4.37668514e-01,  3.18700748e-01,  1.43145550e-01,
          2.67277895e-01,  2.14660742e+00,  7.95351757e-01, -5.38230677e-01,  1.02622867e+00, -8.04557374e-01, -1.60184047e-01,  2.47972557e+00,  4.72771978e-01,  1.76749276e-01,
          5.56297793e-01, -7.09336844e-01,  2.59154356e-01,  1.13886716e+00,  3.06448416e+00, -6.99240779e-01,  3.76148465e-01, -9.74947295e-01,  1.20338387e+00,  1.23678024e+00,
         -2.22577941e+00,  1.79631708e-01, -1.25070915e-01, -3.67563141e-01, -1.03647007e+00,  4.05854066e-01, -1.30952302e+00,  4.12969437e-01, -8.24571577e-01, -1.09167876e-01,
          1.07393470e+00,  1.84870850e+00, -2.68785351e+00, -1.03433040e+00, -2.84433440e-01,  8.31965990e-01, -4.79780969e-01, -1.90794673e+00, -1.93903075e+00, -1.19017604e+00,
         -7.83111205e-01,  3.18710250e+00, -6.73390681e-01, -1.79155512e-01,  9.32705743e-01, -1.06776845e+00,  1.26997160e+00,  1.52676027e-01, -8.18531651e-01,  1.80989251e-01,
         -1.19587004e+00, -1.68538384e+00,  3.84396325e-01,  4.05266309e-02, -4.83913896e-01,  3.45389327e-01, -1.32412331e-01,  1.24266117e-01, -1.49863692e+00, -3.40789102e-01,
          3.88136831e-01,  4.95897509e-01,  1.41969353e+00, -5.24128793e-01,  8.04486381e-01, -1.53591349e+00,  3.33288765e-01, -2.68221375e-01,  3.39505958e+00,  1.19099711e+00,
          1.42364807e+00, -8.83261815e-01,  7.09316202e-01,  2.80790987e-01,  5.60925703e-02,  1.49302517e+00, -1.26180815e-01, -1.13943232e+00,  5.71698480e-01,  9.41881611e-01,
          7.80515358e-01,  1.41060952e+00,  2.98879459e-01,  1.63167773e+00, -1.30598107e-01, -2.40225553e+00, -1.24748901e+00,  1.34791302e-01, -1.17519878e+00,  1.94840644e+00,
         -1.23649867e+00,  1.31928172e+00, -5.74350823e-01,  3.75743728e-01,  5.92286142e-02, -9.89707140e-01,  1.18855627e-03,  1.04732087e+00, -1.61502230e-01,  1.41586014e-01,
          1.81075605e-01,  1.32286697e+00, -1.60192296e+00,  2.44552657e-01, -1.15310334e+00,  1.57938462e+00, -3.58147388e-01,  1.23115801e+00,  1.00929538e+00,  1.19531232e+00,
          9.96282249e-01,  6.70227642e-01,  1.20835344e+00,  8.68506585e-01,  5.44096163e-01,  4.96615099e-01,  6.91545255e-01,  1.36166629e+00, -1.02719154e+00, -1.78157967e-01,
          5.34006770e-01,  1.55075474e+00,  6.31908774e-02, -4.73009691e-01,  1.23933899e+00,  1.86057350e-02, -1.80799599e+00, -8.18025372e-01, -1.59559515e+00,  1.57870947e+00,
          1.70957269e+00,  2.76140348e-01,  1.27946681e-01, -7.94052533e-01,  5.88233023e-01,  1.03672302e+00, -8.56202317e-03,  1.03986759e-01,  1.39010331e+00,  5.48446390e-01,
         -1.83414011e+00, -1.01022673e+00,  6.45332101e-01, -1.15894033e-01, -1.99836882e-01, -1.04524210e-01, -6.59076291e-01,  4.35721105e-02, -7.22498156e-01, -4.61005071e-02,
         -1.40896366e+00,  9.22485912e-01, -1.48873120e-01,  6.89387965e-01,  7.16891536e-01,  5.73996755e-01, -5.20869449e-01, -3.51582083e-02,  1.67005893e-01,  1.37716566e+00,
         -5.21534170e-02,  1.17916680e+00,  1.27139860e+00,  7.56227729e-01,  1.56535011e+00, -5.10978105e-01,  1.15882204e-01, -3.68838229e-01, -4.80484566e-01,  3.77115775e-01,
          3.11889840e-01,  1.00183026e+00, -1.42486375e-01,  1.79394023e+00,  1.61650238e-01, -1.70841136e-01,  5.25140713e-01,  7.41373921e-01, -1.14918000e+00, -1.54127573e+00,
         -1.17632359e+00, -1.07005906e+00, -8.15928013e-01,  7.38785678e-01, -1.61725958e+00,  1.61574103e+00,  1.97938559e+00,  1.08668536e+00,  5.19910542e-01,  1.30290250e+00,
          6.97355505e-01, -3.35426973e-01, -1.21184102e+00, -3.37254240e-01, -9.61335052e-01, -1.99075630e+00, -8.64961858e-02,  4.96970936e-03, -9.21139696e-01,  5.14382774e-01,
         -2.96996039e-01,  1.42718850e+00,  2.10617434e+00, -1.62966358e+00,  1.72062075e-01,  9.50185563e-02,  1.26580821e+00,  1.22779314e+00,  5.36798455e-01,  1.37932085e+00,
         -9.26850477e-01, -2.56116417e-01,  3.94972118e-01, -5.20169374e-01,  1.42233792e+00, -2.51017561e-01,  6.91664312e-01,  1.32383700e+00, -1.54126113e+00, -1.55383099e-01,
         -7.74888738e-01,  1.30431805e-02,  1.07579016e+00,  9.38630622e-02,  2.23662421e+00,  1.96645124e-01,  7.57720129e-01,  8.34760664e-01,  4.15502433e-02,  5.26593296e-01,
         -3.38783053e-01,  2.74282532e-01, -1.09236239e-01,  1.09979143e+00, -1.22205263e+00,  1.06987932e+00, -3.80128442e-01, -1.02085123e+00, -9.01032122e-01,  4.23879447e-01,
         -1.59949440e-01, -1.09083194e+00, -4.15322424e-01, -2.12480699e-01,  4.81152908e-01,  6.40625952e-01, -2.44709521e-01,  9.76131358e-01,  7.41416359e-01,  3.70723060e-01,
         -2.29266355e+00, -1.06763675e+00,  4.06767548e-03, -7.05179785e-01, -1.54424184e-01, -3.89232790e-01,  5.80925692e-01,  1.76725479e-01, -1.40030723e-01, -4.04579432e-01,
         -3.85043460e-01, -5.54844383e-01, -3.73760508e-01,  1.18199956e+00,  3.90746331e-02, -1.19297704e+00, -6.90890256e-01,  1.90589905e+00,  2.12217986e-01, -5.73995509e-01,
         -9.52771220e-01, -1.59415902e+00,  9.38911925e-01, -1.18747076e+00,  1.05708690e+00, -6.39895552e-01, -7.76708113e-01,  2.68958978e+00,  1.50506708e-01, -4.67168153e-01,
         -1.67456980e+00, -1.49442169e-01,  9.39971655e-01,  7.74861537e-01,  9.53071464e-01, -3.39582719e-01, -2.68298788e-01, -1.50949861e+00,  7.16052175e-01, -1.23436903e-02,
          4.80813004e-01, -6.23044427e-01, -7.73669106e-01,  8.40531460e-01,  3.79056312e-01, -5.15958388e-01,  1.74426262e+00, -1.09633813e+00, -6.69532537e-01, -2.01651148e-01,
          1.64681933e+00,  2.67231145e-01,  3.74015520e-01, -1.19376308e+00, -1.54844595e+00,  6.85923592e-01, -5.27065826e-01,  6.51890053e-01,  1.18524817e+00, -1.14937942e+00,
         -1.60544244e+00,  7.15561621e-01, -6.49710083e-01,  3.95332323e-01,  1.00274909e+00, -8.48161089e-02, -7.21800387e-01, -1.61090899e-02,  1.13452639e+00, -1.35327161e+00,
          2.33500640e-01,  1.77280145e+00, -1.08856632e+00,  3.50603882e-01,  5.46791191e-01,  4.09830295e-02,  3.26959077e+00,  9.32909565e-01,  4.24755484e-01, -3.61914236e-01,
          3.76022523e-01,  8.19877181e-01, -1.65241597e+00,  1.33303414e+00,  1.05825054e+00,  1.97421146e+00,  9.82293356e-01,  3.84300308e-01, -3.46936617e-01,  8.31522732e-01,
          2.62999874e-02,  7.49517711e-01,  2.63670461e-01, -8.27016681e-01,  1.05146513e+00, -2.59684779e-01, -1.72302097e+00,  1.60314874e-01, -6.24083366e-01, -3.20562952e-01,
          8.35019520e-02, -2.63095411e+00, -1.06093828e+00,  3.09697276e-01,  6.57169525e-01, -8.73907419e-01, -2.07730498e+00,  4.38619744e-01, -1.83013257e-01,  7.59938120e-01,
          6.47701936e-01, -1.97546377e+00,  2.49168584e-01, -6.32417827e-01,  3.18400055e-01, -5.95078692e-01,  3.30882831e-02,  4.15000078e-01, -2.24762847e+00, -1.43923407e+00,
          1.40636528e+00,  5.08441517e-01, -4.77304146e-01,  2.18763701e+00, -7.52218572e-01, -1.15655152e+00,  1.96840934e-01, -1.23844362e+00, -6.34646416e-01, -8.81882438e-01,
          8.74522203e-01, -7.22641600e-02,  4.26929866e-02, -3.99843569e-01, -2.44708700e+00, -7.38730777e-01, -7.45801492e-02, -7.38005729e-01, -2.13294535e-01, -5.21509701e-01,
          9.38421820e-02, -7.84141208e-01, -8.26623687e-01,  7.75740457e-01, -4.38730847e-01, -2.76593840e-01, -1.97884053e+00,  8.43051108e-01,  4.60378988e-01,  4.56818247e-01,
         -3.45589545e-01,  1.25672667e+00,  1.12259932e+00,  9.51049837e-01],
        [ 4.29376189e-01,  5.40359175e-01, -9.87116676e-01, -3.24176849e-01,  1.18998734e-01,  8.01260741e-01,  7.25247803e-01,  1.38080210e+00,  1.85699315e-01,  6.66710008e-02,
         -4.40623088e-01, -7.26285438e-01, -3.34545634e-01, -1.61534311e+00,  1.70808086e+00,  6.02550882e-01, -1.03452858e+00,  4.09130071e-01, -9.81758602e-01,  8.90969042e-01,
          9.94911408e-01, -1.75879725e+00, -6.18246054e-01, -1.11515458e+00, -6.62707725e-01, -8.96335248e-01, -6.76815344e-01, -1.88568238e+00,  6.85824146e-01,  3.77530363e-01,
         -1.16558546e-01,  1.08874285e-03, -1.61934860e+00,  6.91973467e-01,  7.32071561e-01, -6.68046747e-01, -1.77000562e+00,  1.01978229e+00,  6.57503239e-01,  5.19224406e-02,
          9.65703383e-01,  1.67577815e+00,  2.43570103e-01, -9.86461410e-01, -7.68788867e-01,  1.49792766e+00,  3.24503016e-01,  4.03386882e-01, -2.03098816e-02, -5.38141487e-01,
          9.75749076e-02, -8.35128960e-01, -5.67026703e-01,  1.78145941e+00,  5.61124879e-01,  1.38840711e+00,  1.32282641e+00,  7.17148877e-01, -3.47225927e-01,  1.49389699e+00,
          1.55428907e+00,  4.70309650e-01,  2.14553051e+00, -1.05882163e+00, -5.92769253e-01,  7.34494174e-01, -1.39638430e+00,  2.96619543e-01, -4.26719819e-01, -1.79761408e+00,
          2.70586675e+00, -6.88956324e-01,  6.65974030e-01, -1.56932370e-01,  6.01442006e-02, -9.15698042e-01, -8.33731489e-01,  1.08124085e-01, -1.01650434e+00,  7.56817543e-01,
          9.43588564e-01, -6.15223309e-01, -1.83797014e-01,  6.04785329e-01,  6.54137184e-01,  1.01344966e+00,  5.83318978e-01, -3.92478184e-01, -4.14618887e-01,  3.36109044e-01,
          1.98647375e-02, -1.73920857e+00, -7.62586508e-01,  1.31427374e+00,  4.51454355e-01,  1.18885099e+00, -1.07666650e+00, -5.65996494e-02, -5.57184870e-01,  1.06080159e+00,
         -6.49226231e-01,  1.22496305e+00, -4.25830348e-01, -1.00467208e+00,  7.55690935e-01, -4.70762659e-02,  3.22070829e-01,  7.64267374e-01,  3.58633020e-01, -9.32915822e-02,
          7.03321338e-01,  1.26006301e+00,  1.61047343e+00, -3.11838166e-01, -3.79841060e-01, -6.86165867e-01,  3.36138373e-01, -3.80250833e-02, -1.22608349e+00,  1.01141717e-01,
          2.78988838e-01, -6.51804545e-02,  2.62743838e-01,  8.45521102e-03, -1.16947195e+00,  8.44210998e-01,  3.81882724e-01,  1.81060493e-01, -3.55230815e-02,  1.81626432e+00,
         -1.38103554e+00,  1.22769144e+00,  7.89860508e-01, -6.02546150e-01, -1.49228929e+00,  5.53682194e-01,  6.54201297e-01, -1.19729519e+00, -5.22420264e-01,  9.37277241e-01,
          1.11637747e+00, -4.98989252e-01, -1.22360272e+00,  2.90667548e+00,  1.19052873e+00, -3.53147693e-01, -6.26026305e-01,  6.86990886e-01, -2.92825993e-01, -1.95041298e+00,
          6.37782848e-01, -5.39317909e-01, -1.54287697e+00,  4.37584923e-02, -4.97117347e-01,  2.52807454e-01, -3.63810990e-01,  1.21911272e+00,  4.93122800e-01,  3.26916101e-01,
         -1.88061690e-01,  5.13025291e-01,  1.37505984e+00,  1.14635944e+00, -6.61128411e-01,  2.71136003e-01, -1.29017161e+00,  2.94391296e-01,  6.63175798e-01,  1.97053670e-01,
          1.53785092e-01,  2.00775294e-01, -1.11833827e-02, -8.01510652e-01,  1.80364123e-01, -4.69038023e-01,  5.56345132e-01, -1.03253699e+00,  5.91411487e-01,  9.60252628e-01,
         -6.14383688e-01,  7.63999436e-01, -1.27306115e+00, -1.27883886e+00, -2.08615727e+00, -4.88095409e-01, -2.46829714e-01,  3.06397253e-01, -3.04950115e-01, -6.09998818e-01,
          2.30343652e+00,  3.08000082e-01, -3.20351838e-01,  2.91055882e-01, -8.08328251e-01, -1.44399209e+00, -1.25779173e+00, -4.54879335e-01, -1.18409059e-01,  6.98164036e-01,
          5.90693771e-01, -1.47054666e+00, -4.86904098e-01,  8.70688890e-02,  5.31163049e-01,  7.92595703e-01, -3.32270946e-01,  8.09473558e-01, -5.04367272e-01,  5.44266647e-01,
          7.60947658e-01, -1.34432802e+00, -6.00931184e-01, -9.51973508e-01,  2.59662959e+00, -6.08714432e-01, -1.94061599e-01,  6.71619649e-01, -2.38686867e-01,  4.24441294e-01,
         -5.04792767e-01, -5.48261527e-01,  7.81894971e-01, -7.84417858e-02, -2.08352956e-01,  1.71510344e+00, -9.51321757e-01, -1.04899573e+00,  3.50512244e-01, -1.78951581e+00,
         -1.22602254e+00, -6.47581952e-01, -9.82511022e-02,  7.11839463e-02,  6.58139613e-01, -1.04600302e+00,  7.03906755e-01,  7.26943277e-01,  4.41619016e-01, -2.53424561e+00,
         -6.93524497e-01, -2.39595231e-01, -9.93382195e-01,  1.91629626e-02, -2.47114532e+00,  7.81017760e-01, -3.99536199e-01, -5.59862413e-01, -1.03503371e+00,  1.88515039e+00,
         -4.69508858e-01,  1.03728899e+00,  3.94230502e-01,  1.08296790e+00,  1.18581668e+00, -6.97900822e-01,  4.04963814e-01,  5.45552078e-01, -2.56199387e-02,  1.88639870e+00,
         -1.03439143e+00, -1.42047949e+00,  3.26665607e-01, -5.80614516e-01, -4.92623689e-01,  1.03723742e+00, -8.35373759e-01,  3.77197287e-01, -5.10452065e-02,  5.18858087e-01,
         -1.22089466e+00,  1.99883253e+00, -1.71499630e-01, -1.24703771e+00,  3.66279426e-01, -1.49470766e+00,  7.11263006e-01,  9.66439663e-01,  4.52025451e-01, -5.61098332e-01,
         -4.57839602e-01,  2.19374416e-01,  1.11483761e+00,  2.54612870e+00, -1.50776728e-01,  5.62945077e-01,  1.36391417e+00, -6.49183891e-01, -8.39257468e-01,  5.09906488e-01,
         -6.75216602e-01, -2.81963884e-01, -4.90682378e-01, -1.13772343e+00, -2.12632647e+00,  4.61047425e-01, -1.64325651e-01,  4.26928028e-01, -1.27439464e+00, -1.30617769e+00,
          9.18115068e-03,  1.49068498e+00, -7.73744106e-01,  6.07541223e-02,  1.85105885e+00, -3.00033219e-01, -1.98364612e+00,  1.42992374e+00, -9.70374326e-01, -7.49577971e-02,
          1.26249232e-01, -6.00773679e-02, -1.25088418e-01,  1.18477868e+00,  4.16901058e-01,  7.10593402e-01,  7.30948625e-01,  8.26666282e-02,  1.32564204e-01, -1.38231836e+00,
          1.69258851e+00,  6.05992526e-01, -3.03920917e-01,  2.00311269e-01, -6.90933345e-01,  8.56789951e-01, -2.15977068e+00, -1.05437954e+00, -2.05237155e+00, -1.20218338e+00,
          9.29288371e-01, -8.02807114e-01,  3.15598377e-02, -1.71826465e+00,  3.79145789e-01, -3.99735618e-01, -1.33838397e+00, -4.43223509e-01, -1.77336054e+00,  2.42700082e-01,
         -9.65458500e-01, -2.37217081e-01, -3.82826329e-01,  2.27249825e+00,  1.85404981e+00, -9.52983838e-01,  1.65289379e+00, -7.56562669e-01, -1.89580347e+00, -1.60689283e+00,
         -6.87772981e-01,  1.46625229e+00,  2.24371805e-01, -1.53571336e+00, -1.73092041e+00,  5.01091534e-01,  1.08186357e-01, -7.86859116e-01, -6.61640300e-01,  5.93705818e-01,
         -5.58843570e-01,  2.74883085e+00, -7.46419160e-01,  1.38017790e+00, -1.79451902e+00, -1.08678927e+00, -2.16366211e-01,  1.73133869e+00, -1.68100226e+00, -7.86460661e-01,
          4.42103182e-01, -4.45510947e-01,  4.69464735e-01, -2.81954818e-01,  3.70396418e-01, -1.46255833e+00, -1.34978426e+00, -4.61186748e-01,  1.71231396e-01, -8.62966609e-01,
         -2.35913531e-01,  3.12943841e-01,  5.39726722e-02,  1.44088922e+00,  9.71496053e-01, -1.98117872e+00, -1.47938258e+00, -1.59887158e+00, -1.11401201e+00, -1.30525205e+00,
          1.64460433e+00, -2.85264917e-01,  7.63549369e-01, -2.40316474e-01,  3.53515344e-01,  1.53106828e+00,  6.49989550e-01, -9.26814266e-01,  1.35756979e+00, -7.16851422e-01,
          1.50368906e-01,  1.01972138e+00, -9.84509102e-01, -1.14202790e+00,  2.14161224e+00, -1.38189286e+00, -1.56860298e+00,  1.03393248e+00,  3.48584505e-01,  1.05331971e-01,
         -1.16939316e+00, -1.35489583e-01, -2.06663296e+00, -1.27492683e+00, -1.71305757e-01,  3.70431136e-01, -1.25282263e+00,  1.36048286e+00, -3.16396623e-01,  9.30047357e-01,
          1.41739638e+00,  1.77287242e+00, -1.03286489e+00, -8.22240490e-01,  1.23225051e+00, -1.33104492e-01, -6.44249845e-01, -9.73840547e-02, -1.40983507e+00, -2.49959827e-01,
         -1.90940226e-01,  7.15777770e-01, -4.45619279e-01,  8.53250008e-01, -8.04040115e-01, -2.48450610e-01, -7.31697035e-01,  1.14794568e-01,  5.58685342e-01, -8.89837193e-01,
          1.76683140e-01, -1.93989371e+00, -1.12478864e-02, -4.21682426e-01,  4.76468697e-01, -8.26074831e-01, -1.53704228e+00, -7.69826536e-02, -8.60905749e-01,  1.17520668e+00,
         -1.02939007e+00,  3.04116154e-01, -9.50394667e-01,  6.69367157e-01, -3.10918510e-01,  8.49069573e-01, -2.76704305e-01,  2.84180430e-01, -6.05663798e-01, -3.73103215e-01,
         -8.36558778e-01, -1.62343388e+00, -4.12132535e-01, -6.81928679e-01, -2.93348944e-01, -6.12288643e-01,  9.22685712e-01, -6.44271783e-02, -5.68987174e-01,  6.50965272e-01,
          2.40768614e-01, -2.68867029e+00, -2.25869718e+00,  5.81272530e-01,  2.29477088e-02,  1.05468215e+00, -1.46294906e+00,  7.06815840e-01,  1.01798072e+00,  3.98565061e-01,
          1.34454450e+00, -6.13776630e-01, -2.43141053e-01, -1.79579895e+00,  1.61609478e-02, -3.55790072e-01,  1.41498942e-01, -4.43878239e-01, -8.67903478e-02,  1.54958024e-01,
         -9.89409446e-01, -1.31636164e+00,  5.19430054e-01, -1.78579838e+00, -5.30945197e-01,  7.37649327e-01, -1.43162592e+00,  3.46662661e-02,  1.26218743e+00,  1.02991991e+00,
          3.21729165e-01,  4.14435520e-01,  1.28654740e+00, -7.71932050e-01,  1.01286449e-01,  1.00087341e+00,  2.98819122e-01, -4.00231244e-01, -1.28350768e+00,  1.50549425e-01,
          6.50580367e-02, -2.77052535e+00, -4.32554770e-01,  2.10262799e+00,  9.19628002e-01, -4.76689401e-01,  1.62628472e+00, -1.15430501e+00,  2.53902736e-01, -1.85508936e-01,
          1.12195014e+00,  1.22210950e+00, -1.61367800e-01,  1.33441071e-01,  5.06834362e-01, -1.54874433e+00, -9.49904028e-01,  9.57095992e-01, -3.27423589e-01, -8.56355166e-01,
         -3.20974382e-01, -1.22823147e+00,  1.11732590e+00,  1.88417767e-01,  3.82889771e-01,  1.14748244e+00, -2.02651495e-01, -4.46749289e-01,  1.21221857e+00,  1.64341690e+00,
          1.79172269e+00, -4.36309817e-01,  1.83027519e-01, -7.93151325e-01,  1.52076946e+00, -5.18088754e-01,  6.49465809e-01, -2.88172682e-01, -1.21277125e+00, -1.36576156e+00,
         -2.06407021e+00, -1.07995240e+00, -3.33501796e-02, -6.99801653e-01, -8.61098978e-01, -9.57964353e-01, -1.07752434e+00,  1.41326024e+00, -1.57748725e+00,  1.02935118e+00,
         -3.09024864e-01, -1.20738586e+00,  4.54963257e-01, -1.62012645e+00,  1.59831338e+00, -1.05219490e+00, -2.09998893e-01,  1.03734383e+00, -1.65129667e-01,  1.27187655e+00,
          3.74401388e-01,  3.81142557e-02,  1.44297932e+00, -1.25366203e+00,  8.96099671e-01,  3.30001393e-01, -4.11661792e-01, -5.48989968e-01,  1.75292867e+00, -8.16374120e-01,
         -1.44004550e+00, -5.65227629e-01, -4.14320184e-01,  7.62391672e-01,  5.26411610e-01,  1.89272568e-01, -2.01539692e-01, -7.87295741e-02, -1.36702313e+00,  1.54946019e+00,
          3.84794290e-01, -1.21580866e-01,  5.16741319e-01,  6.24248129e-01,  8.19725706e-01,  1.04373918e+00,  4.87585827e-01,  7.04974048e-01, -2.26261881e+00,  9.85072307e-01,
          5.21970189e-01, -8.08782829e-01, -4.15823695e-01, -6.52978203e-01, -7.85091651e-01,  1.75834259e+00,  2.02133350e-01,  2.58440940e-01,  4.08317970e-01,  8.29863728e-02,
         -1.16401802e+00, -1.58684509e+00,  6.67752834e-01,  4.45463499e-01, -1.24464913e+00,  1.11152414e+00,  1.51166299e+00,  1.43742052e+00,  1.02724691e-01,  1.00087397e+00,
         -1.78440667e-01, -9.29679094e-01, -7.58253197e-01, -3.79326516e-01, -2.02608589e+00, -5.55177536e-02, -1.16427463e+00, -6.26279217e-01,  6.47163572e-01,  1.85491527e+00,
         -2.43867058e-01, -7.25758620e-01, -2.45761233e-01, -9.63177099e-01,  7.89082957e-01, -3.77186267e-01,  6.44373254e-01, -1.04892313e+00, -3.75418190e-01,  1.94378388e+00,
          8.93708752e-01,  7.58932675e-01, -3.81252721e-01,  1.70838760e+00, -1.54451294e-01,  9.22904500e-01, -9.68984716e-01,  1.30808710e-01, -1.02519177e+00, -1.34227708e+00,
         -8.50804711e-01, -2.09199809e-01, -2.96761995e-01, -4.74953900e-01, -1.14047909e+00,  4.17114447e-01, -2.13325185e+00, -5.84287111e-01, -9.66401071e-01, -2.82904343e+00,
         -4.50071349e-01,  6.38897131e-01, -3.50287613e-01, -7.19465001e-01, -4.13191937e-02, -2.54810946e-01,  9.30632823e-01, -2.01648668e+00,  2.84956411e-01,  2.32494922e-01,
         -1.35099954e+00,  8.23201178e-01,  2.50146922e-02, -4.54671778e-01, -2.74529544e-02,  6.07286984e-01,  9.71798660e-01,  8.48585917e-02, -2.27081418e-01,  1.34216149e-01,
          3.59532746e-01, -1.46167971e+00,  1.38117847e+00,  3.09096643e-01, -2.15713841e-01,  3.98911179e-01, -3.86844265e-01,  1.02869449e+00,  1.44511200e+00,  6.29073135e-01,
         -8.69617405e-01,  1.56366499e+00, -6.68970821e-01, -2.54466725e-01, -8.85694909e-01, -5.87638716e-01, -7.75307236e-03,  9.87698134e-01, -2.10090244e+00,  1.77535516e+00,
         -4.35179221e-02,  2.21621624e-01, -6.48249628e-01, -1.04938146e+00,  1.08680926e+00,  2.96325673e+00,  6.82678820e-01, -8.53550855e-01, -4.83425290e-01, -2.27520307e-02,
         -1.43152724e+00,  2.86919586e-01,  9.36470574e-01, -1.22008412e+00, -1.53164789e-01,  2.12750061e+00,  5.62105042e-02,  4.83979646e-01, -5.74800981e-01, -1.89019928e-01,
          1.20104824e-01,  7.08679370e-01,  2.19338516e+00,  1.40171464e-01, -1.32424578e+00,  1.52642796e+00,  4.56834734e-01, -6.47751347e-01,  3.12197507e-01,  5.85222924e-01,
          1.10530865e+00,  1.28632002e+00, -2.08069134e+00, -1.96003059e-01, -4.89922406e-01,  3.04557683e-01, -7.93354649e-01,  3.37079639e-01,  6.10125136e-01, -3.67416421e-02,
          1.78977601e+00,  2.15935875e-01, -6.65832506e-01, -1.07850735e+00, -9.14605718e-02, -2.31213992e-01,  1.20385011e+00, -7.16659720e-03,  9.92549622e-01, -1.88756856e+00,
         -2.07793058e-01,  9.59874817e-02,  5.67741237e-01, -7.01193133e-01, -1.05926429e+00,  5.38784728e-01,  1.35643180e+00,  4.92289521e-01, -1.28206544e+00, -6.56364531e-01,
          4.35800645e-01, -1.27586425e+00,  6.09912702e-01, -1.58398536e-01,  8.00708507e-01, -5.56072400e-01, -2.38903979e-01, -3.01597616e+00, -5.70590806e-01,  6.81604601e-01,
         -2.06012264e-01, -7.89440181e-01,  1.86747304e-01,  2.26955044e-02, -1.14309690e+00,  1.41897340e-01, -9.30539605e-01,  5.73362785e-01, -1.54631009e+00, -7.33995097e-01,
         -2.02949156e-01,  3.97912467e-01, -1.92415650e+00,  8.77525358e-01],
        [ 1.36711554e+00,  1.44367606e+00,  2.77407039e-01,  6.19305770e-01, -4.86020910e-02, -8.45003038e-01,  3.42614821e-01,  1.66981848e+00,  4.33435099e-02, -1.11152291e+00,
          5.72946068e-01, -9.71904047e-01,  6.09939029e-01, -1.89300220e+00, -2.49294659e-02,  6.31844515e-01, -1.05929087e+00,  5.61961406e-01, -2.35559254e-01,  7.66067005e-01,
         -1.21421880e+00,  8.06302162e-01,  2.94713696e-02, -4.69588124e-01, -4.37433333e-01,  5.73447215e-01,  1.40192571e-01, -6.61008983e-01,  2.87807068e-01, -1.34302284e+00,
          1.26441065e-01,  1.79573308e+00, -2.42898564e-01, -6.53876131e-01,  8.72728402e-02, -1.78312013e+00,  5.38684352e-01,  4.27582388e-01, -4.21501759e-01, -4.56792815e-01,
         -1.69615526e-01, -1.69532961e+00, -2.91690433e-01,  1.61593414e+00, -1.04671724e+00, -9.24632435e-01,  8.63301718e-01,  3.51018930e-01, -9.28671090e-01,  9.23699606e-01,
          5.67979680e-01,  3.67569322e-01, -6.57428089e-01, -9.01605385e-01,  9.89462278e-01, -7.51481737e-02, -1.42692200e+00,  2.36994768e-01, -1.66109966e+00, -4.87615902e-01,
         -1.62530470e-01,  4.18588964e-01,  1.24500189e+00, -5.84856991e-01,  1.39842329e-01, -3.58791209e-01,  2.45985023e-01, -1.17768117e+00,  6.60242949e-01, -9.02848003e-01,
         -1.04867476e+00,  7.11161711e-01, -6.28539104e-02, -1.06422558e+00, -5.10980915e-01, -1.73760558e-02,  1.27109966e-01,  5.83294238e-01, -3.15996889e-01, -4.10109551e-02,
          8.27407192e-01, -1.86115501e+00, -6.99373429e-01, -1.97950116e+00, -1.02317983e+00,  6.39124881e-02, -2.49516608e-01, -9.62208428e-01, -6.62764981e-01, -9.55389908e-01,
          7.74959268e-01, -1.73240900e-01,  5.47815259e-02, -1.36153655e+00,  1.83099265e+00,  7.79229743e-03, -6.84466714e-01,  2.14838628e+00, -7.21160944e-01, -4.25561598e-01,
          6.74145252e-01, -1.03400543e-01,  1.11565554e-01,  2.81647064e-01, -2.59250506e+00, -4.52589600e-01, -2.12825168e-01,  6.04077835e-02,  5.04856654e-01, -7.04195870e-01,
          1.12831168e+00,  9.95583589e-01, -6.29695495e-01, -9.15275709e-01,  2.01669585e-01,  3.82620099e-01, -8.93011725e-01, -6.53337431e-02,  5.53931743e-01,  2.29723858e+00,
          4.84695187e-01,  4.73098104e-01,  5.32252745e-01,  1.08608366e+00,  8.86994029e-02, -7.94991885e-01,  1.12625403e-01,  3.95610616e-01,  6.61364704e-01, -6.05794804e-01,
         -1.30565505e+00, -1.03261670e+00,  1.04850802e-01,  1.02623743e+00,  1.71561360e+00,  6.80357853e-01,  1.62439474e+00, -2.18547217e+00, -1.71052806e+00,  2.07912459e-01,
         -8.08879374e-01,  1.63775877e+00, -8.98846425e-01, -3.79558694e-01,  8.50829341e-02,  1.51833541e+00, -2.39109748e-01, -6.35499295e-01,  1.62920904e+00, -1.23459625e+00,
          5.05216296e-01,  3.20485466e-01,  2.21151826e+00,  1.13213377e+00,  1.59818636e+00,  1.43390536e+00,  7.40156768e-01,  9.33366214e-02,  1.78541958e+00,  1.13176589e+00,
         -1.30742657e+00, -1.65931054e-01, -7.73623362e-02,  6.83431863e-01,  6.02243367e-01, -8.76897630e-01,  1.68851328e+00, -8.09535750e-02,  7.19119933e-01,  3.36270371e-01,
          1.43559860e+00, -2.71432295e-01,  1.29254295e+00, -4.83970189e-01,  1.29841909e+00,  9.90569092e-01,  7.94189163e-01, -4.04333881e-01, -1.01796060e+00,  5.20911266e-01,
         -5.36801102e-01, -5.46536959e-02,  2.96320606e-01,  8.45327977e-01,  9.56971401e-01, -2.44941775e-01, -9.40955511e-02,  8.97574971e-02,  1.13382927e+00, -5.77004449e-01,
         -9.75812749e-01,  1.75323925e-01,  1.39817551e+00, -3.43525253e-01, -7.05855468e-01,  1.99259670e-01,  1.09020381e+00, -3.16680143e-01,  7.47705002e-01, -9.40760716e-01,
          5.46137381e-01,  4.60872885e-01,  8.30462448e-01,  6.84990352e-01, -5.92286845e-01, -7.86335781e-01,  1.93749828e+00,  1.41955247e+00,  1.66904808e-01,  2.16315473e-01,
          7.29207214e-01, -2.07944481e-01, -3.54593805e-01, -2.12000816e+00,  1.65476695e+00,  8.40133253e-01, -3.39354504e-02,  1.52323400e+00, -4.68839927e-01,  1.64260136e-01,
          2.15250497e+00,  4.93520263e-02,  7.18345197e-01, -1.03200192e+00, -9.67115871e-01,  2.14320339e-01,  1.05327403e-01, -1.81458795e+00, -1.16205905e+00,  8.04952760e-01,
         -1.09909644e-01,  1.16898422e+00,  5.80313073e-01,  1.47343609e+00,  4.90040261e-02, -3.71824357e-01,  3.28992343e-01,  1.29047903e+00, -1.08862808e-01,  3.83109488e-02,
          1.51770098e+00, -2.80946726e-01, -9.22532300e-01,  4.12373019e-01,  5.77631909e-01, -6.24715299e-01,  6.71151946e-01,  1.99276544e-01, -1.66564311e+00, -8.73335207e-01,
         -8.91476156e-01,  4.90060786e-01, -1.82453684e+00, -3.50085163e-01,  2.95137363e-01, -1.12216679e+00,  4.57948887e-01, -7.57609613e-01,  6.74159216e-01,  9.92237404e-01,
         -1.04316639e+00,  1.04818763e+00,  3.16305641e-03, -1.32095510e-01,  7.23494221e-01, -1.25877177e+00, -1.20240796e-01, -1.53651156e-01,  4.83858700e-02, -4.07527769e-01,
          7.58274454e-01, -2.76203894e-01, -1.64930253e-02, -9.23655152e-01,  1.47265724e+00,  3.61229276e-01,  2.02869621e+00, -6.11380404e-01,  3.80710461e-01,  1.04090395e+00,
          8.91760192e-01, -1.82918811e+00,  1.32184008e+00,  1.09753485e-01, -1.48841456e+00,  8.04664132e-01,  1.03167756e+00, -2.37017317e-01, -1.35100317e+00, -2.21427502e+00,
          8.42436653e-01, -3.06855501e-01, -7.64375758e-02,  8.68637179e-01,  6.01478089e-02, -2.63574333e+00, -8.74244695e-01,  4.58162248e-01,  3.82224175e-01, -1.18897465e+00,
          3.26822989e-01,  1.44750934e+00, -8.94130474e-01,  2.99144748e-01,  4.03866548e-01,  6.39906859e-01, -1.32239764e-01, -2.99728536e-01,  5.99718361e-01, -3.68146478e-01,
          5.45403656e-01, -2.78394398e-01, -1.51464236e+00,  1.05270821e+00, -2.41389599e-01, -5.07999701e-01,  1.26855943e+00, -1.19457928e-01,  9.95188217e-01, -9.88369603e-01,
          1.79204808e-01, -9.31695812e-01,  6.53680260e-01,  1.96565157e+00, -6.25586395e-01, -2.56470516e+00,  1.30667218e+00, -5.43171677e-01, -1.30947039e+00, -9.35530728e-01,
          1.30666615e+00,  1.28526391e+00, -1.61466144e-01,  3.65762240e-01, -2.19016524e-01, -1.86574046e-01,  1.44819279e+00,  1.05855529e-02, -1.41274842e+00,  1.00668619e+00,
          7.91697372e-01,  7.26296105e-01, -1.01822408e+00, -7.64145580e-01,  9.17321705e-01,  1.46648857e-02, -7.17522403e-01, -3.57765165e-01,  1.08442993e+00,  8.74279949e-01,
          8.45056136e-01,  3.57811371e-01, -1.07895664e+00,  9.60825931e-01, -1.64221325e+00, -5.80041999e-02, -2.24686518e-01, -1.03129234e-01, -1.04269170e+00, -4.41116894e-02,
          6.06336721e-01, -1.57478367e-01,  4.36047927e-01, -2.56211538e-01,  7.35160719e-01,  1.44350156e+00,  6.44567181e-01,  6.14321711e-01,  6.61107085e-01, -8.09726119e-01,
          1.50443331e-01, -1.28907254e+00, -7.10323562e-01, -1.68064005e-01, -1.46876750e-01,  1.26789495e+00, -5.78883081e-02, -7.77263138e-01,  3.28693289e-01, -9.62636281e-01,
         -2.43906676e+00, -6.76979529e-01,  2.61048643e-01,  7.98374486e-02,  2.76063821e-01, -6.39835426e-01, -1.33024597e+00, -9.57441135e-01, -1.99565692e-01, -1.13918029e+00,
          1.34459548e+00,  2.66365180e-01,  3.95493539e-01,  2.03912562e+00, -9.80359426e-01,  2.85909041e-02,  5.17188099e-01,  9.94993248e-01, -9.58649485e-01, -2.50405544e-01,
          8.24697804e-02, -2.14754543e+00,  6.87239598e-01, -1.96719071e+00,  2.10256533e-01,  4.28936100e-01,  1.16212333e+00, -1.19051683e+00, -7.98681943e-01, -1.65061334e+00,
         -2.31438226e+00, -2.11218607e+00, -1.01724428e+00,  6.03012564e-01, -1.62388776e+00,  4.42291843e-01,  8.67809149e-01, -3.44943639e-01, -4.93301548e-01, -3.40321825e-01,
          1.03502333e+00, -1.56276120e+00, -1.82431714e+00, -1.78968739e+00,  1.91430385e-02, -7.79938253e-01, -1.33717244e+00, -1.68995034e+00,  1.34073181e+00, -1.36568802e+00,
          1.26974314e+00, -1.61547144e+00,  1.20400695e+00,  1.59670485e+00, -7.85871569e-01, -1.22618859e+00, -2.14548624e+00, -3.42867534e-01,  2.89569494e-01, -1.38468248e+00,
         -1.60105183e+00, -1.20229408e-01, -5.62348845e-01, -3.63331504e-02, -3.73385303e-01,  1.92031239e+00, -2.83339259e-01, -1.33690012e-02, -5.99082907e-01,  1.90969600e+00,
          3.84996252e-01,  2.34884915e-02,  2.56100087e-01,  3.58742187e-01, -1.57947969e-01, -1.50349817e+00, -8.75825914e-01, -4.87623487e-01, -1.12971984e+00,  7.82960399e-01,
          1.04698579e+00,  1.23006071e+00, -1.69405484e+00, -6.28850410e-01, -2.70803365e-01, -1.18768802e+00,  1.59552765e-01, -6.54793637e-02,  1.52190244e+00, -1.20946959e+00,
          1.78601591e+00,  1.53191383e+00, -4.38903497e-01,  2.73068651e+00, -8.88916009e-01, -9.04100734e-01,  3.42960585e-01,  9.30452451e-01, -1.83951944e-01,  1.59519241e+00,
         -1.38951458e+00, -1.42087245e-01,  9.28147105e-01,  2.36194051e-01, -1.40470003e+00,  8.22834327e-01, -4.54861455e-01, -1.38346023e+00, -1.25560278e+00,  1.60501349e+00,
          9.45963630e-01, -1.69703568e+00, -1.48505688e+00,  6.74963500e-01, -2.09593207e-01, -1.85182160e+00, -3.34964451e-01,  1.48202323e-01, -1.59305060e+00,  6.81438559e-01,
         -1.56277991e-01, -7.43877796e-01, -9.54823178e-02, -2.32310411e+00,  1.48468758e+00,  8.37890642e-01,  9.43717998e-01, -1.06254609e+00, -1.29448659e+00, -1.09027034e+00,
          2.24667997e+00,  7.21127903e-01,  1.09988993e-01,  2.25750548e+00, -4.85014209e-01, -5.79060077e-01,  6.05772205e-01, -1.18549244e+00, -6.12349520e-01, -1.39987639e+00,
          5.40819755e-01, -1.80280929e+00, -1.52104905e+00, -6.25280450e-01, -1.22160124e+00, -4.84810304e-01,  1.19601440e-02, -4.00898477e-01,  8.37374001e-01,  1.23738219e+00,
          4.61522574e-01,  2.13056295e+00, -3.03915752e-01, -1.01578856e+00,  1.14672063e+00, -2.40179023e-01, -1.43599961e+00,  8.54354843e-01,  1.02757634e+00,  8.48089561e-01,
         -4.53318607e-01,  9.04659037e-01, -6.02667794e-01,  1.48514627e+00,  3.63287648e-01,  8.19279681e-01, -4.56832958e-01,  4.77583263e-01, -1.33622712e+00, -5.32137825e-01,
          1.61318036e+00, -2.20644968e-02,  8.19292382e-01,  1.88108046e-01,  5.00105928e-01,  7.06934599e-01,  9.78162584e-01,  1.30983827e+00,  1.81262230e+00,  6.75318908e-01,
          1.35414305e+00,  1.23362102e+00, -9.92544247e-01, -2.09227196e+00,  8.83739286e-01,  3.03162492e-03,  1.71970697e+00,  1.54220081e+00,  2.63545217e-01,  1.68510118e+00,
          8.48969613e-01, -3.30991702e-02,  1.03627053e+00, -1.01007525e+00, -8.75771776e-01,  8.38471053e-01, -7.11644685e-01,  3.00131745e+00, -8.54353306e-01,  8.29015006e-01,
          8.26666452e-01, -8.02631487e-01,  1.83684803e-01, -7.95375696e-02, -3.73914554e-01, -6.76931371e-01, -4.98442810e-01, -2.17380029e-01,  5.18563760e-01, -1.15646514e+00,
         -1.58019170e-01, -2.13141867e+00, -2.34752919e+00,  3.54669021e-01,  7.16746294e-01, -2.14941648e-01,  5.82647070e-01,  1.97790986e+00,  1.00838345e+00,  4.52511963e-01,
         -8.98997770e-01,  1.69927868e+00,  8.95246022e-01,  6.88399376e-01,  5.69762187e-01,  1.25863256e+00,  8.63127334e-01,  9.10669161e-01,  1.44648853e+00,  2.97087712e-02,
         -4.18221201e-01, -6.72626280e-01, -8.01165524e-02,  2.53952214e-01, -1.12519942e+00, -3.50741536e-01,  2.15943161e+00, -1.42281268e+00, -5.28608401e-01,  7.43800251e-02,
         -9.62292494e-01, -5.97641026e-01,  1.59207744e+00,  9.76886379e-01, -6.20489435e-01,  6.71655265e-01,  6.02875879e-01, -3.34976519e-01,  1.49030794e+00,  9.36380041e-01,
          4.25170153e-01, -3.44211765e-01,  1.95464015e+00,  5.60663174e-01,  1.86525827e+00, -6.33458863e-01,  1.16116685e+00,  2.24922541e+00, -5.21275672e-01, -1.88424074e+00,
         -7.05070923e-01,  6.61370614e-01, -4.51740647e-01, -6.29086991e-01,  8.90678621e-01, -1.03099709e+00, -6.16328622e-01, -9.77269951e-01,  5.94800991e-01,  6.46544936e-01,
          2.48603494e-01,  2.62902966e+00,  2.15761087e-01,  1.31230204e+00,  1.48251816e+00,  2.29086164e+00,  1.00331825e+00,  3.57731923e-01,  2.42872151e+00,  9.73153661e-01,
          6.60791054e-02,  1.11637425e+00, -8.73379789e-02, -1.03815405e+00, -1.30578279e-01,  4.51614237e-01, -7.55272190e-01, -5.75608517e-01, -5.80007281e-02,  2.65733041e-02,
          9.61228867e-01,  8.69044638e-01, -7.97870972e-01, -4.84611293e-01,  1.63814783e-01,  6.03684501e-01, -1.33539830e+00,  4.87524124e-01,  5.88763264e-01, -1.99751510e+00,
         -1.13829647e+00,  1.69342926e+00,  1.88788709e-01, -5.53805395e-01,  4.73222223e-01,  9.61690804e-01,  1.19651798e+00,  3.94553377e-01,  5.78233634e-01, -5.20831625e-01,
         -4.91845988e-01,  1.24960691e+00,  3.90453905e-01, -1.33822597e-01,  5.81986128e-01, -1.52002802e+00, -4.40293938e-01,  4.61261822e-01, -2.30398003e+00, -8.41286010e-02,
          1.39822469e+00,  7.64855110e-01, -1.61773844e-02, -6.45116967e-01, -1.03799693e+00,  4.82011279e-01,  1.60383593e-01, -1.81428687e+00,  4.14223973e-01,  1.81853409e-01,
         -1.25346632e-01,  1.32303868e+00,  5.10225906e-02, -3.75210228e-02,  4.86041896e-01, -6.06816359e-01, -1.59295827e+00, -2.74359160e-01,  1.19232451e+00, -1.88718440e+00,
          1.73009799e-01, -1.33385965e+00, -1.26182800e+00,  2.76484362e-01,  1.24338186e+00, -3.11445797e-01,  1.77309370e+00, -2.09066434e+00,  9.17516864e-02, -2.70314274e-01,
          1.60288115e+00,  1.32019198e+00, -7.83753403e-01,  5.81655824e-01,  2.89587532e-01,  4.35677858e-01, -1.59050849e-01, -6.66376067e-01, -4.81569955e-01,  1.03896298e+00,
         -1.82153759e+00, -4.83740978e-01,  9.61081338e-01, -2.05806586e+00,  1.65427187e+00, -1.26868594e-01, -1.16044397e-01,  6.01603333e-01, -3.58348932e-02, -2.92165921e-01,
          1.09408142e-01,  7.01287124e-02, -4.16095948e-01, -5.27776213e-01, -2.28922973e-01, -1.27650729e+00,  4.14840059e-02,  1.83972721e+00, -2.56666126e+00, -1.18310030e+00,
         -5.84647120e-01, -4.69655439e-01,  1.34266839e-01,  1.92362432e+00, -4.36524731e-01,  1.72578534e-01, -1.26201393e+00,  9.81109504e-01,  4.05484403e-01, -2.19501248e-01,
         -2.92378999e-01, -9.32929851e-01, -7.35727158e-01, -3.97293055e-01, -1.92454133e+00, -9.14570093e-01, -2.90146986e-01,  1.70366317e-01, -4.03446464e-01, -6.80356745e-02,
         -7.93978044e-01, -1.61848077e+00,  2.70787627e+00,  1.39791562e+00],
        [-7.12767929e-01,  5.13024426e-01, -1.16468497e+00,  1.14121961e+00, -1.22120147e+00, -4.26309094e-01, -1.50255154e+00,  6.56213935e-02,  1.17439486e+00, -1.76681585e+00,
          1.16029613e+00, -1.53688145e+00, -1.28186503e+00, -3.73658270e-01, -3.77619351e-01, -6.08191965e-01, -1.83368059e-01,  7.27593704e-01,  1.53464507e+00, -6.91499465e-01,
         -5.08476098e-01, -6.23960811e-01,  3.30918599e-01,  1.52128676e+00,  6.06244982e-01, -2.33799905e-01,  1.22399982e+00, -2.93736379e-01, -1.05369392e+00,  6.79557533e-02,
         -8.41748391e-02,  3.18675017e-01,  7.85690281e-01,  3.04708102e-02, -2.23810685e+00, -1.51665046e-02, -4.78341383e-01,  1.73737504e+00,  1.02989622e+00, -1.33407760e-01,
          2.67320806e-01,  8.70558585e-01, -3.06972099e-01, -2.35423295e-04,  6.38400735e-02,  2.62913064e-01,  1.51004046e+00,  1.20832802e+00, -1.68671760e+00,  5.99646323e-01,
          1.30711714e+00,  8.93640486e-01, -6.44414120e-01,  9.04793525e-01, -5.58081851e-01, -3.44929524e-01, -5.02611907e-01,  2.28115721e+00, -1.31801065e+00,  1.49792120e+00,
         -3.60665014e-02,  3.38855953e-01,  1.55608047e+00, -6.09278986e-01,  6.74855149e-01, -4.86151211e-01,  1.15727862e+00,  1.09947798e+00,  5.90734712e-01,  1.05850104e+00,
         -2.49704749e-01,  3.28751631e-01,  1.04816451e+00, -4.34927103e-01, -1.42099809e+00, -1.65397010e+00, -4.43586880e-01, -5.61917667e-01,  1.24660160e+00, -1.49405438e+00,
         -5.07297041e-01, -1.45623871e+00,  1.68382222e+00, -1.15022207e-01,  3.74858381e-01,  8.27562727e-01, -5.33337631e-01, -2.96344360e-01,  1.40860154e+00, -1.46759461e-01,
         -8.43656120e-01,  4.89573569e-02, -1.09603503e+00, -1.36972315e+00, -3.43710904e-01, -1.17620333e+00,  1.65507582e-01,  1.29670968e+00, -2.00026146e+00, -3.30795791e-01,
          4.29933715e-01,  4.57288163e-01,  3.74326287e-01, -1.17625340e+00,  1.74137888e-01,  3.25881827e-01,  7.85543011e-01, -5.13154372e-02, -1.31655435e+00, -1.83191864e+00,
         -1.40499550e+00,  7.27117100e-01, -2.82231606e-01, -1.02878507e+00, -1.39748273e+00,  6.66014388e-01, -5.88407084e-01, -1.42870579e+00,  1.17376063e-01,  4.92188679e-02,
          7.91064317e-02, -9.06673997e-01, -3.79084738e-02,  1.41803499e-01, -1.91181661e-01,  9.60931535e-01, -1.30301423e-01, -9.50185996e-01,  1.54594652e-01,  5.71592550e-01,
         -1.34455204e+00, -1.38693229e+00, -9.80194817e-01, -1.64266877e+00, -1.05191529e+00, -1.54724686e-01, -5.37584813e-01,  8.50516359e-01,  1.07105700e+00, -2.40136499e-01,
         -1.15672827e+00,  9.99473558e-02, -3.46950822e-01, -1.97190653e+00,  2.88106703e-01,  1.87408145e+00,  2.78228199e-01,  1.94345142e+00, -1.16757513e+00,  4.13482085e-01,
          9.30282509e-01, -1.83247351e-01,  1.10343315e+00, -6.95337123e-01, -1.20996002e+00, -5.55637767e-01, -1.98364429e-01, -7.66944173e-01,  2.79245690e-01, -1.00474245e+00,
         -3.33462493e-01,  2.70746097e-01, -1.83622820e+00, -1.48345292e+00,  1.00196024e+00, -7.95302076e-01, -1.18691789e+00,  9.79930318e-01,  8.17051212e-02,  1.66868908e+00,
          6.35835671e-01,  5.14935429e-01, -3.00583682e-01,  3.57245422e-01,  7.42085802e-01,  1.95229573e-01,  4.53084873e-01, -7.59598914e-01, -1.45881111e+00, -1.44949136e+00,
         -9.42996917e-01,  1.64164926e+00, -3.27873607e-01,  8.68802397e-01, -2.65132326e+00, -3.93077388e-01,  3.14525306e-01, -5.35306293e-01,  1.31006909e+00,  9.33990491e-01,
         -1.48716493e-01,  1.64195493e+00, -1.27004226e+00,  1.02866941e+00, -8.54797797e-01, -1.98556464e-01,  1.21420634e-01, -5.33196257e-01, -6.93824159e-01, -9.16005024e-01,
          1.42409130e+00, -3.15450325e-01,  6.39651732e-01,  2.27589374e-01,  6.55882035e-01, -4.77595287e-01,  8.88804761e-01,  5.11375110e-02, -7.62591121e-01, -9.89378690e-01,
         -1.48716181e+00,  2.07696358e-01, -4.89146345e-01, -2.02791909e-01,  2.70955993e-02, -3.64515255e-01,  6.11347123e-01,  3.53694673e-01, -1.34303151e+00, -1.86480966e-01,
          1.21264956e+00,  2.42559535e-01, -8.34878425e-01, -3.42056352e-01, -7.68511800e-01,  2.08565601e-01,  9.53051460e-01,  1.26481386e+00, -1.11081934e+00,  1.20464487e+00,
         -5.57003713e-02,  1.36933406e+00,  9.47438321e-01, -1.04099511e-01,  1.86156008e-01, -1.90066610e-01,  1.71911448e+00,  5.90508918e-01, -8.46029020e-01,  6.47855645e-01,
          9.29845473e-01,  9.95080366e-01, -7.17218728e-01,  5.38553236e-01,  2.40629872e+00, -8.09378664e-01, -1.67077423e+00, -1.34235770e+00, -1.91827264e+00, -6.64462461e-01,
         -3.46553439e-01,  6.81871571e-01, -2.01332789e+00,  6.27592252e-01,  1.51711617e-01,  1.01326264e+00,  9.91311401e-01,  1.06964003e+00, -8.26252681e-01,  5.48277621e-01,
         -7.11299134e-01, -1.19308796e+00, -1.66151571e+00, -9.59071357e-01, -1.30361407e-01, -4.58298093e-01,  1.05447484e+00, -1.11232261e+00,  1.67711992e+00,  1.37360027e+00,
          1.19902692e+00, -3.67165969e-01,  7.83841948e-01,  7.17305476e-01,  7.37619343e-02, -3.08313726e-02,  5.84012218e-01, -2.30344056e-01, -7.11972126e-01,  9.57793831e-01,
         -4.97723874e-01, -1.06728505e+00, -7.22168126e-01,  5.26287505e-01, -2.92746085e-01,  5.61961589e-01, -5.46814027e-01,  2.56977889e-01,  6.71015191e-01,  8.30717910e-01,
         -8.11279135e-01, -1.04895653e+00,  6.72428892e-01, -5.35065032e-01,  2.41515899e+00,  3.78560856e-01,  1.61795115e+00,  2.30656429e-01,  1.59843596e+00, -9.34972014e-01,
          1.72754351e+00, -9.44733481e-01,  3.89350965e-02, -2.54505166e+00, -5.48654646e-01,  1.93776642e-02,  1.74990299e+00,  2.06067422e+00,  9.25337438e-01,  4.59163907e-01,
          5.34780771e-02,  4.25500761e-01, -3.89857518e-01,  4.64241765e-01, -9.38612421e-01,  1.62700585e+00, -4.17718777e-02, -6.19866821e-01,  7.61838698e-01,  6.78511364e-01,
          7.52466638e-01,  2.12439220e+00, -4.72446881e-01,  2.83561181e+00,  2.31273006e+00,  1.59545382e+00,  1.27068032e+00,  1.41802941e+00,  7.40532383e-02, -3.65751227e-01,
         -1.17911890e+00,  1.39659695e+00,  7.33519870e-02,  1.62663950e+00,  1.56821359e+00, -4.26932311e-02, -2.63513344e-01, -4.35372475e-01, -1.25722230e+00,  9.32426087e-02,
          8.77440374e-01,  2.99461903e-01, -4.36547844e-01, -2.85805186e+00,  7.39577870e-01, -1.97677014e+00,  5.44608792e-01,  2.26679471e-01, -1.22515528e+00, -9.56292014e-02,
          1.06412573e+00,  9.35038590e-01,  1.49178901e+00,  1.35459821e+00, -5.47392857e-01,  1.22677487e+00, -8.83643223e-02, -1.27416105e+00,  5.04585469e-01,  2.26637684e-03,
         -3.51403017e-01, -2.45928396e+00,  6.29166183e-01,  6.32770470e-01, -1.10588242e+00, -1.14894737e+00, -1.71448926e+00, -3.25263865e+00,  6.53919260e-01,  1.24162634e+00,
          4.35285087e-01,  2.50380217e-01, -4.91634867e-01, -9.56842961e-01,  1.01984494e+00, -1.04157948e+00, -7.42030279e-01,  6.72638492e-01,  1.74491957e+00,  1.06613252e+00,
          3.35410460e-01,  2.72021270e+00,  7.44769910e-03, -2.70873147e-01,  2.81680253e-01,  2.73874165e-01,  2.17959815e-01, -1.15730715e+00,  1.08422402e+00,  3.77567824e-01,
         -6.39113722e-01, -1.14502886e+00, -9.42542453e-02,  9.34790531e-01, -2.87903900e-01,  9.56966360e-01, -1.09999709e+00, -1.72273636e+00, -2.56661662e-01,  2.06987141e+00,
         -3.27856071e-01,  1.16491004e+00, -1.57046548e+00, -1.93077259e-01,  3.37119588e-01, -3.57035222e-01,  2.98679252e-01, -5.88995492e-02, -3.26574385e-01,  1.25708850e+00,
          2.36639713e-01, -1.24423452e+00,  7.73840119e-01, -4.69281040e-01, -3.15008968e-01, -1.31981937e+00,  6.15621136e-01, -1.49861156e+00, -5.82966076e-01, -3.16386892e-02,
         -7.40266333e-01, -1.79896161e+00, -2.22458051e+00, -9.96466750e-01,  2.67550377e-01, -9.01896721e-01, -2.10060023e-01, -7.96914370e-01, -3.16059824e-01, -1.26726729e+00,
         -1.79860866e-01,  3.72390046e-04, -1.36225477e+00,  1.21269992e+00,  7.43164455e-01,  1.78980954e+00, -5.20898210e-02,  2.07118209e+00,  8.93984799e-01,  2.16931770e+00,
         -4.77162853e-01,  4.16403904e-01,  1.39182750e-01,  1.71637622e-01, -6.80060837e-01,  1.75458374e+00, -1.09028408e+00, -4.97678734e-01, -1.22353293e+00,  5.08948132e-01,
          2.69180575e+00,  3.00014517e-01, -1.01672912e+00,  2.33424648e-01, -7.98462108e-01, -1.58173500e+00, -3.41522438e-01, -9.88687727e-01, -4.80679899e-01, -5.11706115e-01,
         -1.38888578e+00, -1.70597150e+00,  1.31067171e+00,  5.90085830e-01,  7.25163711e-01,  1.33435363e-01, -4.99693287e-01,  3.90502341e-01,  1.24438553e+00,  4.25732620e-01,
          7.41380642e-01,  1.24862557e-01, -3.93018345e-01,  1.65015434e-01, -1.57533404e+00, -7.19434722e-01, -1.18449250e-01,  1.30442178e+00,  5.58617737e-02,  1.34196048e+00,
          7.13539453e-01, -8.46481770e-01, -6.84606632e-01, -1.66885167e+00, -1.34446939e+00, -2.28042824e+00, -1.83992192e+00, -9.80864230e-01,  4.86867221e-02,  9.05405952e-01,
          3.03675008e-01, -6.81651544e-01,  7.26511547e-02, -7.33758509e-01,  1.45563476e-02, -8.91229423e-01, -1.09890973e-01, -9.39172270e-01, -7.39165379e-01,  2.11647048e-01,
         -1.09540183e+00,  1.43247501e+00, -4.21650654e-01,  7.41881742e-01, -9.99970141e-01,  1.05670139e+00,  4.18023098e-01,  7.07173996e-01,  1.29324702e+00,  6.75141927e-01,
         -1.46149660e+00,  4.41304586e-01, -1.40251001e+00, -1.17528617e+00, -2.51174870e+00, -1.86819312e+00, -4.21715115e-01, -3.18045944e+00, -1.34114669e+00, -4.68436054e-01,
          2.71430369e+00, -3.06994873e-01,  8.88735281e-01,  3.20316395e-01, -6.69714666e-01,  2.67386441e-01,  1.36619421e+00, -6.12575286e-01, -9.04063650e-01, -1.04370148e+00,
          1.60760420e+00,  5.42741858e-01,  1.27475258e-01,  8.33745957e-01,  3.04445395e-01,  4.08237651e-01,  1.13500229e+00,  2.74171144e-01,  3.71532831e-01, -8.13576170e-01,
         -6.72812515e-01,  3.38794263e-01, -1.06879094e+00, -1.03568908e+00, -1.49619968e+00,  2.45732568e-02, -1.24179642e+00,  9.87808535e-01, -3.02915165e+00, -1.12579662e+00,
         -8.49731254e-01, -1.01241362e+00,  6.18084205e-02, -1.09705546e+00,  2.16276021e+00,  2.51576870e-01, -3.43684249e-01, -3.55932217e-01, -4.62003805e-01,  1.00255079e+00,
         -2.62863734e-01, -1.19655086e+00, -3.25959262e-01, -1.07224329e+00,  5.61191686e-01,  1.11278903e+00, -2.27132974e+00,  1.58864123e+00, -2.90170613e-01, -1.88825259e+00,
          8.15047686e-01, -3.97791303e-01, -1.18247432e+00,  6.34155954e-01, -1.03049370e+00,  6.64532333e-01, -1.48809038e-01, -1.37526021e-01,  5.73355078e-01, -4.05462304e-02,
          1.31149015e-01, -2.25597974e+00, -7.02416486e-01,  3.30539077e-01, -5.65835423e-01,  5.07531757e-01,  6.86016187e-01, -2.05461036e-01, -5.01997487e-01, -2.60246601e+00,
          3.08313879e-01,  3.10798251e-01, -1.01408967e+00, -6.16192631e-01, -8.28092430e-01, -1.70795868e-01, -4.51904390e-01, -2.64384803e-01, -7.74576629e-01, -7.92900344e-01,
         -1.56922999e+00, -3.29930934e-01, -2.97662297e-02, -2.24638131e-01,  3.69371243e-01, -3.48243818e-01, -4.04274146e-01,  9.06211405e-01, -1.36183286e-01, -7.40926205e-01,
         -6.09729355e-01, -3.87191798e-01, -7.34562121e-01, -1.14561463e+00, -2.89676963e-01, -1.44663780e+00,  1.18064443e+00,  1.13311347e+00,  1.37812907e+00,  8.55367720e-01,
          2.10154080e+00, -9.29884037e-01,  2.11972015e+00, -4.28012600e-01,  3.84072693e-01, -2.91729368e-01,  4.32198261e-01, -8.40765736e-01,  1.76314837e+00, -7.23799927e-01,
         -2.92027243e-01, -6.70764085e-01,  1.93925784e-02, -1.54689620e+00, -4.01223484e-01, -6.34983306e-01, -1.58718629e+00,  3.76295425e-02,  6.83967139e-01,  1.03427219e-01,
          2.13076044e-01, -2.23878855e+00,  1.13809111e-01,  2.72224042e-02, -5.66104606e-01, -6.01990826e-01,  4.98963198e-03,  1.04982402e+00, -1.33601194e+00,  4.67450809e-01,
         -1.09396728e+00,  4.92263385e-01, -1.58274257e+00,  2.24339065e+00, -1.05931822e+00,  2.11751003e-01, -4.25538266e-01,  2.15058255e-01, -4.92118756e-01,  9.50523749e-01,
          5.98852823e-01, -7.47608756e-01,  1.62754404e+00, -1.03080943e+00, -4.94432907e-01, -9.03286945e-01, -1.18978149e+00,  7.23040430e-01,  5.37347140e-02, -7.21839293e-01,
          2.28991032e-01, -3.12727038e-01, -1.14021119e+00,  5.82661813e-01,  7.78058312e-01, -9.03326438e-01, -4.96984089e-01, -1.79656675e+00,  2.45201838e+00,  1.89649665e+00,
          5.42198312e-01,  2.46990469e-01, -5.35396805e-01,  2.14151566e-01, -5.66355883e-01, -9.27175217e-01,  5.14610432e-01, -1.72713845e+00, -2.66202654e-01,  1.19062830e+00,
          5.38276051e-01, -2.04439505e-01, -6.70647636e-01,  3.57180137e-01, -4.10242566e-02,  3.50141878e-01, -1.23501391e+00,  1.66264797e-01, -2.48292224e-01,  1.31808529e+00,
          8.46248156e-01, -1.19247537e+00, -1.30468773e+00,  1.13114035e+00, -1.18095703e+00, -2.20005397e-01,  9.91930478e-01,  1.08113714e+00,  8.28090687e-02,  9.26201213e-01,
          8.03725914e-01, -4.16933665e-01,  8.29914870e-01,  1.52259023e+00, -1.85629117e+00,  2.38748655e+00, -9.27923066e-02,  1.02798050e+00, -1.18664087e-01, -1.49282444e+00,
         -3.12503347e-01, -6.98789287e-01, -8.37535695e-02, -4.38441461e-01, -1.57983175e+00, -1.28470072e+00,  8.40304517e-01, -4.35871462e-02, -3.13730310e-02, -8.61573383e-01,
          2.56290172e-03,  1.32588700e-01, -2.49683647e+00, -1.12844939e+00, -1.41752900e+00,  5.36859190e-01,  4.07290223e-01, -4.96628060e-02,  7.13603794e-01,  1.20518112e+00,
         -1.15603505e+00,  1.14456372e-01,  4.94263415e-01, -2.00170457e-01,  6.57262436e-02,  2.63189854e-01, -9.39416279e-01, -8.15199264e-02,  1.50620373e+00,  7.62025135e-01,
         -8.23107614e-01,  1.10143421e+00, -1.36291804e+00,  1.03617976e+00,  6.01680689e-02,  2.49202845e+00,  1.86682099e+00,  3.48092233e-01,  2.05742685e+00, -2.91145004e-01,
          3.17690686e-01, -4.17486340e-01, -4.98949499e-01,  9.77575684e-01, -4.77157454e-01, -1.00569604e+00,  6.35808346e-01, -6.05651280e-01, -7.28920297e-01, -6.57988982e-01,
         -3.34609816e-01,  1.69492843e-01, -8.56547576e-01,  4.63768909e-01, -3.13469935e-01, -1.16075185e+00, -8.85252820e-01,  4.24220366e-01, -2.29517470e-01, -1.20946681e+00,
          9.05741787e-01, -2.24703393e-02, -7.79920414e-01, -2.70725874e-01],
        [-5.27101336e-02,  8.30933988e-01, -5.17112163e-01,  1.00594672e+00,  5.48105916e-02, -2.04761406e-01,  1.16571209e+00,  8.11139887e-01,  4.42418833e-01,  1.93708243e+00,
          6.77861734e-01, -1.25803702e+00, -8.79034645e-01,  2.17833320e+00,  4.45555820e-01, -3.01977687e-01,  8.60895764e-01,  2.24324190e-01, -3.86489538e-01,  2.86767030e-01,
          6.29066886e-01,  4.86891939e-01, -2.22094749e+00, -1.45193063e+00,  1.12719568e-01, -5.54634504e-01,  1.42840245e+00,  9.25319505e-01,  5.88272079e-01, -1.41236404e-01,
         -6.56321762e-01,  8.52112530e-01, -1.68273871e+00, -1.87744049e+00,  1.28707522e-01,  3.55131374e-01, -1.64484343e-01, -1.51716515e+00,  5.05170439e-01, -4.00432407e-01,
         -7.70817259e-01, -1.11745870e+00, -6.24311575e-01, -4.12325043e-01, -5.86275999e-01, -9.15090158e-01,  4.91929629e-01, -7.88139846e-01,  9.21782512e-02, -1.18668843e+00,
         -1.45328049e-01, -1.22391223e-01, -1.28531416e+00,  4.18974852e-01,  9.35482614e-01, -1.92598672e+00, -6.77362933e-01, -4.27071720e-01, -1.20218506e+00, -1.27175131e+00,
         -1.57936713e+00,  1.21103552e+00,  2.02871466e-01, -1.11090603e-01, -1.29448749e+00,  4.13965528e-01, -1.70216937e+00, -7.51705891e-01, -1.09996334e+00,  1.42096848e+00,
          9.73625371e-01, -9.75473143e-01, -7.43912386e-02, -1.58918097e+00,  3.14006496e-01,  3.31541700e-01, -1.37675100e+00, -6.43766498e-01,  1.40855250e-01, -1.33230075e+00,
          1.94127244e+00,  1.94683267e+00,  5.41889348e-01, -1.66264998e+00,  6.63221449e-01, -4.24943792e-01,  1.16694673e+00, -9.61160698e-01,  3.01079676e-01, -4.64326541e-01,
